{
  "metadata": {
    "architecture": [
      2,
      15,
      1
    ],
    "grid_size": 5,
    "spline_order": 3,
    "num_layers": 2,
    "total_parameters": 450
  },
  "layers": [
    {
      "layer_index": 0,
      "input_features": 2,
      "output_features": 15,
      "grid_points": [
        -1.0,
        -0.6000000238418579,
        -0.19999998807907104,
        0.19999998807907104,
        0.6000000238418579,
        1.0
      ],
      "grid_range": [
        -1.0,
        1.0
      ],
      "spline_coefficients": [
        [
          [
            -0.0033485321328043938,
            0.34611958265304565,
            -0.021856505423784256,
            -0.31529590487480164,
            -0.02946671098470688,
            0.21954968571662903,
            -0.06997460126876831,
            0.22634202241897583
          ],
          [
            0.37433651089668274,
            0.1263672560453415,
            0.45988091826438904,
            -0.10450839251279831,
            0.3521634638309479,
            -0.01151185017079115,
            -0.33441126346588135,
            -0.3074064254760742
          ]
        ],
        [
          [
            0.41176265478134155,
            0.09240458160638809,
            0.10028768330812454,
            -0.22594121098518372,
            -0.3851058781147003,
            -0.3217928409576416,
            -0.007984817028045654,
            -0.23917323350906372
          ],
          [
            0.17938145995140076,
            -0.554880678653717,
            0.03871240094304085,
            -0.4080822765827179,
            0.11229216307401657,
            0.11870348453521729,
            0.06846946477890015,
            -0.05371516942977905
          ]
        ],
        [
          [
            -0.15991953015327454,
            -0.05714096501469612,
            -0.1627046912908554,
            0.45575734972953796,
            -0.2514742910861969,
            -0.2947387099266052,
            -0.44248396158218384,
            0.13041621446609497
          ],
          [
            -0.36349356174468994,
            -0.4195708930492401,
            0.4494572579860687,
            0.01736738346517086,
            -0.14347511529922485,
            -0.5421231985092163,
            -0.1487857699394226,
            -0.28670912981033325
          ]
        ],
        [
          [
            -0.25603827834129333,
            0.3654860556125641,
            -0.05311724171042442,
            -0.06858648359775543,
            -0.17137593030929565,
            -0.17714549601078033,
            0.20164471864700317,
            0.04429548978805542
          ],
          [
            0.02320145256817341,
            -0.42710912227630615,
            -0.3186204135417938,
            -0.03940954431891441,
            -0.4506843686103821,
            -0.14241664111614227,
            0.05023139715194702,
            -0.37939274311065674
          ]
        ],
        [
          [
            0.0020727356895804405,
            0.4745784103870392,
            0.40359583497047424,
            0.1482812911272049,
            0.27128490805625916,
            0.3682439625263214,
            -0.24185556173324585,
            -0.12574303150177002
          ],
          [
            0.2944442927837372,
            0.3913700580596924,
            -0.40789520740509033,
            -0.19049404561519623,
            -0.24646390974521637,
            -0.46842849254608154,
            -0.276724636554718,
            0.1374351978302002
          ]
        ],
        [
          [
            -0.34288397431373596,
            -0.20612701773643494,
            -0.43269622325897217,
            -0.26100608706474304,
            0.07083389908075333,
            -0.18133291602134705,
            -0.31330406665802,
            -0.3210936188697815
          ],
          [
            -0.10303345322608948,
            0.06492487341165543,
            0.2999866306781769,
            0.32896485924720764,
            0.3564000427722931,
            -0.22396229207515717,
            -0.35555142164230347,
            0.2107936143875122
          ]
        ],
        [
          [
            -0.3044429421424866,
            -0.1071876734495163,
            -0.23656219244003296,
            0.16947044432163239,
            -0.5338519215583801,
            -0.0955413430929184,
            0.37620627880096436,
            -0.05942809581756592
          ],
          [
            -0.24011267721652985,
            0.06031350418925285,
            0.0836370512843132,
            -0.2227247655391693,
            0.12023546546697617,
            0.33561205863952637,
            -0.15198689699172974,
            0.24108266830444336
          ]
        ],
        [
          [
            0.15193058550357819,
            -0.3473835289478302,
            0.26647692918777466,
            -0.08681051433086395,
            -0.022463161498308182,
            -0.09470708668231964,
            0.45550233125686646,
            0.19725722074508667
          ],
          [
            -0.1403169184923172,
            -0.4048384726047516,
            -0.07089252769947052,
            -0.2891467213630676,
            -0.2593529522418976,
            -0.5333956480026245,
            -0.32578349113464355,
            0.13271218538284302
          ]
        ],
        [
          [
            -0.13757607340812683,
            0.28716203570365906,
            -0.31093403697013855,
            0.27686965465545654,
            0.1946680098772049,
            0.022221416234970093,
            -0.41585439443588257,
            -0.41191720962524414
          ],
          [
            0.3383878171443939,
            -0.04771168902516365,
            0.08576823025941849,
            0.4856296479701996,
            0.25950887799263,
            0.44069725275039673,
            -0.20323055982589722,
            0.07841694355010986
          ]
        ],
        [
          [
            -0.017238887026906013,
            -0.3372831642627716,
            -0.38067686557769775,
            0.17115667462348938,
            0.24238866567611694,
            -0.3601582944393158,
            0.23862403631210327,
            0.4509812593460083
          ],
          [
            -0.4458450376987457,
            0.1681181788444519,
            -0.3072398602962494,
            0.3682307302951813,
            0.3295608162879944,
            0.3618503212928772,
            -0.06596332788467407,
            0.12123769521713257
          ]
        ],
        [
          [
            0.039780907332897186,
            -0.290677547454834,
            0.266941636800766,
            0.08908674865961075,
            -0.10087637603282928,
            0.43050333857536316,
            -0.36634260416030884,
            0.38402795791625977
          ],
          [
            0.16004003584384918,
            0.01721663773059845,
            0.1144658550620079,
            -0.32880404591560364,
            0.39825689792633057,
            0.31389859318733215,
            -0.2559961676597595,
            0.16840022802352905
          ]
        ],
        [
          [
            -0.22257503867149353,
            0.032447345554828644,
            0.11233530938625336,
            -0.43711403012275696,
            0.329110324382782,
            -0.14355245232582092,
            0.3144952654838562,
            0.1671120524406433
          ],
          [
            0.0013942638179287314,
            -0.48321035504341125,
            -0.017859188839793205,
            -0.2168792188167572,
            0.011785727925598621,
            -0.07688798755407333,
            -0.35044020414352417,
            0.30615150928497314
          ]
        ],
        [
          [
            0.21721336245536804,
            0.21969765424728394,
            0.08185531198978424,
            -0.46013811230659485,
            0.09421558678150177,
            0.39386171102523804,
            0.20524919033050537,
            0.46119868755340576
          ],
          [
            -0.24782179296016693,
            -0.23336751759052277,
            0.1102931797504425,
            -0.41484564542770386,
            0.2709144651889801,
            -0.3052852153778076,
            -0.11869710683822632,
            0.2707923650741577
          ]
        ],
        [
          [
            0.4109764099121094,
            -0.23275215923786163,
            0.4074803292751312,
            0.3035181164741516,
            0.14077644050121307,
            -0.4007711112499237,
            -0.19667130708694458,
            0.08476412296295166
          ],
          [
            0.297676682472229,
            -0.15773266553878784,
            -0.4853149354457855,
            -0.05652210861444473,
            -0.34980136156082153,
            0.29686281085014343,
            -0.005681216716766357,
            -0.4718555808067322
          ]
        ],
        [
          [
            -0.12887424230575562,
            0.3649989664554596,
            0.0006858204142190516,
            -0.47611933946609497,
            -0.49184736609458923,
            -0.012262078933417797,
            -0.034564852714538574,
            0.4361574649810791
          ],
          [
            -0.10943716019392014,
            0.22693875432014465,
            -0.17512379586696625,
            -0.4707461893558502,
            0.10865065455436707,
            0.4379764199256897,
            0.34136998653411865,
            0.09340691566467285
          ]
        ]
      ],
      "base_weights": [
        [
          0.02240113727748394,
          0.3065483272075653
        ],
        [
          -0.21127229928970337,
          0.2790214419364929
        ],
        [
          -0.04315121844410896,
          -0.2967778146266937
        ],
        [
          -0.4060927629470825,
          -0.06205642968416214
        ],
        [
          0.19450530409812927,
          -0.23035012185573578
        ],
        [
          0.21708519756793976,
          -0.26295509934425354
        ],
        [
          0.17753896117210388,
          -0.4259248673915863
        ],
        [
          0.4497238099575043,
          -0.4590260982513428
        ],
        [
          0.124020054936409,
          -0.30392175912857056
        ],
        [
          -0.13781136274337769,
          0.4344467520713806
        ],
        [
          -0.018562790006399155,
          0.34613272547721863
        ],
        [
          -0.5456094145774841,
          -0.14206711947917938
        ],
        [
          0.2763915956020355,
          -0.4322800636291504
        ],
        [
          0.37041372060775757,
          -0.4170905649662018
        ],
        [
          0.4916820228099823,
          0.4576456844806671
        ]
      ],
      "scale_base": 1.0,
      "scale_spline": 1.0,
      "spline_evaluations": [
        {
          "input_idx": 0,
          "output_idx": 0,
          "x_values": [
            -2.0,
            -1.979899525642395,
            -1.95979905128479,
            -1.9396984577178955,
            -1.9195979833602905,
            -1.8994975090026855,
            -1.8793970346450806,
            -1.859296441078186,
            -1.839195966720581,
            -1.819095492362976,
            -1.798995018005371,
            -1.7788944244384766,
            -1.7587939500808716,
            -1.7386934757232666,
            -1.7185930013656616,
            -1.6984925270080566,
            -1.678391933441162,
            -1.6582914590835571,
            -1.6381909847259521,
            -1.6180903911590576,
            -1.5979899168014526,
            -1.5778894424438477,
            -1.5577889680862427,
            -1.5376884937286377,
            -1.5175879001617432,
            -1.4974874258041382,
            -1.4773869514465332,
            -1.4572863578796387,
            -1.4371860027313232,
            -1.4170854091644287,
            -1.3969849348068237,
            -1.3768844604492188,
            -1.3567838668823242,
            -1.3366835117340088,
            -1.3165829181671143,
            -1.2964824438095093,
            -1.2763819694519043,
            -1.2562813758850098,
            -1.2361809015274048,
            -1.2160804271697998,
            -1.1959798336029053,
            -1.1758794784545898,
            -1.1557788848876953,
            -1.1356784105300903,
            -1.1155779361724854,
            -1.0954773426055908,
            -1.0753768682479858,
            -1.0552763938903809,
            -1.0351759195327759,
            -1.015075445175171,
            -0.9949748516082764,
            -0.9748743772506714,
            -0.9547739028930664,
            -0.9346734285354614,
            -0.9145728349685669,
            -0.8944723606109619,
            -0.8743718862533569,
            -0.854271411895752,
            -0.8341708183288574,
            -0.8140703439712524,
            -0.7939698696136475,
            -0.7738693952560425,
            -0.753768801689148,
            -0.733668327331543,
            -0.713567852973938,
            -0.693467378616333,
            -0.673366904258728,
            -0.6532663106918335,
            -0.6331658363342285,
            -0.6130653619766235,
            -0.5929648876190186,
            -0.572864294052124,
            -0.552763819694519,
            -0.5326633453369141,
            -0.5125628709793091,
            -0.49246227741241455,
            -0.47236180305480957,
            -0.4522613286972046,
            -0.4321608543395996,
            -0.4120602607727051,
            -0.3919597864151001,
            -0.3718593120574951,
            -0.35175883769989014,
            -0.33165836334228516,
            -0.3115577697753906,
            -0.29145729541778564,
            -0.27135682106018066,
            -0.2512563467025757,
            -0.23115575313568115,
            -0.21105527877807617,
            -0.1909548044204712,
            -0.1708543300628662,
            -0.15075373649597168,
            -0.1306532621383667,
            -0.11055278778076172,
            -0.09045231342315674,
            -0.07035183906555176,
            -0.05025124549865723,
            -0.030150771141052246,
            -0.010050296783447266,
            0.010050296783447266,
            0.030150771141052246,
            0.05025124549865723,
            0.07035183906555176,
            0.09045231342315674,
            0.11055278778076172,
            0.1306532621383667,
            0.15075373649597168,
            0.1708543300628662,
            0.1909548044204712,
            0.21105527877807617,
            0.23115575313568115,
            0.2512563467025757,
            0.27135682106018066,
            0.29145729541778564,
            0.3115577697753906,
            0.33165836334228516,
            0.35175883769989014,
            0.3718593120574951,
            0.3919597864151001,
            0.4120602607727051,
            0.4321608543395996,
            0.4522613286972046,
            0.47236180305480957,
            0.49246227741241455,
            0.5125628709793091,
            0.5326633453369141,
            0.552763819694519,
            0.572864294052124,
            0.5929648876190186,
            0.6130653619766235,
            0.6331658363342285,
            0.6532663106918335,
            0.673366904258728,
            0.693467378616333,
            0.713567852973938,
            0.733668327331543,
            0.753768801689148,
            0.7738693952560425,
            0.7939698696136475,
            0.8140703439712524,
            0.8341708183288574,
            0.854271411895752,
            0.8743718862533569,
            0.8944723606109619,
            0.9145728349685669,
            0.9346734285354614,
            0.9547739028930664,
            0.9748743772506714,
            0.9949748516082764,
            1.015075445175171,
            1.0351759195327759,
            1.0552763938903809,
            1.0753768682479858,
            1.0954773426055908,
            1.1155779361724854,
            1.1356784105300903,
            1.1557788848876953,
            1.1758794784545898,
            1.1959798336029053,
            1.2160804271697998,
            1.2361809015274048,
            1.2562813758850098,
            1.2763819694519043,
            1.2964824438095093,
            1.3165829181671143,
            1.3366835117340088,
            1.3567838668823242,
            1.3768844604492188,
            1.3969849348068237,
            1.4170854091644287,
            1.4371860027313232,
            1.4572863578796387,
            1.4773869514465332,
            1.4974874258041382,
            1.5175879001617432,
            1.5376884937286377,
            1.5577889680862427,
            1.5778894424438477,
            1.5979899168014526,
            1.6180903911590576,
            1.6381909847259521,
            1.6582914590835571,
            1.678391933441162,
            1.6984925270080566,
            1.7185930013656616,
            1.7386934757232666,
            1.7587939500808716,
            1.7788944244384766,
            1.798995018005371,
            1.819095492362976,
            1.839195966720581,
            1.859296441078186,
            1.8793970346450806,
            1.8994975090026855,
            1.9195979833602905,
            1.9396984577178955,
            1.95979905128479,
            1.979899525642395,
            2.0
          ],
          "y_values": [
            0.05893342196941376,
            0.0583411271008627,
            0.05774883223231164,
            0.0571565338510549,
            0.056564238982503845,
            0.05597194411395279,
            0.05537964924540173,
            0.05478735086414499,
            0.05419505599559393,
            0.053602761127042875,
            0.05301046625849182,
            0.05241816787723508,
            0.05182587300868402,
            0.05123357814013296,
            0.050641283271581905,
            0.05004898840303085,
            0.04945669002177411,
            0.04886439515322305,
            0.04827210028467199,
            0.04767980190341525,
            0.047087507034864196,
            0.04649521216631314,
            0.04590291729776208,
            0.04531062242921102,
            0.04471832404795428,
            0.044126029179403226,
            0.04353373431085217,
            0.04294143592959543,
            0.04234914457375005,
            0.04175684619249331,
            0.041164551323942256,
            0.0405722564553912,
            0.03997995807413446,
            0.03938766671828908,
            0.03879536833703234,
            0.038203073468481286,
            0.03761077859993023,
            0.03701848021867349,
            0.03642618535012243,
            0.03583389048157137,
            0.035241592100314634,
            0.03464930074446926,
            0.03405700236321252,
            0.03346470749466146,
            0.0328724126261104,
            0.032280114244853664,
            0.031687819376302606,
            0.03109552450775155,
            0.03050322963920049,
            0.029910934770649433,
            0.029318636389392694,
            0.028726341520841636,
            0.02813404665229058,
            0.02754175178373952,
            0.02694945340248278,
            0.026357158533931724,
            0.025764863665380666,
            0.02517256879682961,
            0.02458027041557287,
            0.02398797554702181,
            0.023395680678470754,
            0.022803385809919696,
            0.022211087428662957,
            0.0216187925601119,
            0.02102649769156084,
            0.020434202823009784,
            0.019841907954458726,
            0.019249609573201987,
            0.01865731470465093,
            0.01806501983609987,
            0.017472724967548814,
            0.016880426586292074,
            0.016288131717741017,
            0.01569583684918996,
            0.015103541980638902,
            0.014511243599382162,
            0.013918948730831104,
            0.013326653862280047,
            0.01273435899372899,
            0.01214206061247225,
            0.011549765743921192,
            0.010957470875370134,
            0.010365176006819077,
            0.00977288113826802,
            0.00918058275701128,
            0.008588287888460222,
            0.007995993019909164,
            0.007403698151358107,
            0.006811399770101367,
            0.00621910490155031,
            0.005626810032999252,
            0.0050345151644481945,
            0.004442216783191455,
            0.0038499219146403973,
            0.0032576270460893397,
            0.002665332177538282,
            0.0020730373089872245,
            0.001480738927730485,
            0.0008884440591794274,
            0.00029614919062836975,
            -0.00029614919062836975,
            -0.0008884440591794274,
            -0.001480738927730485,
            -0.0020730373089872245,
            -0.002665332177538282,
            -0.0032576270460893397,
            -0.0038499219146403973,
            -0.004442216783191455,
            -0.0050345151644481945,
            -0.005626810032999252,
            -0.00621910490155031,
            -0.006811399770101367,
            -0.007403698151358107,
            -0.007995993019909164,
            -0.008588287888460222,
            -0.00918058275701128,
            -0.00977288113826802,
            -0.010365176006819077,
            -0.010957470875370134,
            -0.011549765743921192,
            -0.01214206061247225,
            -0.01273435899372899,
            -0.013326653862280047,
            -0.013918948730831104,
            -0.014511243599382162,
            -0.015103541980638902,
            -0.01569583684918996,
            -0.016288131717741017,
            -0.016880426586292074,
            -0.017472724967548814,
            -0.01806501983609987,
            -0.01865731470465093,
            -0.019249609573201987,
            -0.019841907954458726,
            -0.020434202823009784,
            -0.02102649769156084,
            -0.0216187925601119,
            -0.022211087428662957,
            -0.022803385809919696,
            -0.023395680678470754,
            -0.02398797554702181,
            -0.02458027041557287,
            -0.02517256879682961,
            -0.025764863665380666,
            -0.026357158533931724,
            -0.02694945340248278,
            -0.02754175178373952,
            -0.02813404665229058,
            -0.028726341520841636,
            -0.029318636389392694,
            -0.029910934770649433,
            -0.03050322963920049,
            -0.03109552450775155,
            -0.031687819376302606,
            -0.032280114244853664,
            -0.0328724126261104,
            -0.03346470749466146,
            -0.03405700236321252,
            -0.03464930074446926,
            -0.035241592100314634,
            -0.03583389048157137,
            -0.03642618535012243,
            -0.03701848021867349,
            -0.03761077859993023,
            -0.038203073468481286,
            -0.03879536833703234,
            -0.03938766671828908,
            -0.03997995807413446,
            -0.0405722564553912,
            -0.041164551323942256,
            -0.04175684619249331,
            -0.04234914457375005,
            -0.04294143592959543,
            -0.04353373431085217,
            -0.044126029179403226,
            -0.04471832404795428,
            -0.04531062242921102,
            -0.04590291729776208,
            -0.04649521216631314,
            -0.047087507034864196,
            -0.04767980190341525,
            -0.04827210028467199,
            -0.04886439515322305,
            -0.04945669002177411,
            -0.05004898840303085,
            -0.050641283271581905,
            -0.05123357814013296,
            -0.05182587300868402,
            -0.05241816787723508,
            -0.05301046625849182,
            -0.053602761127042875,
            -0.05419505599559393,
            -0.05478735086414499,
            -0.05537964924540173,
            -0.05597194411395279,
            -0.056564238982503845,
            -0.0571565338510549,
            -0.05774883223231164,
            -0.0583411271008627,
            -0.05893342196941376
          ]
        },
        {
          "input_idx": 1,
          "output_idx": 0,
          "x_values": [
            -2.0,
            -1.979899525642395,
            -1.95979905128479,
            -1.9396984577178955,
            -1.9195979833602905,
            -1.8994975090026855,
            -1.8793970346450806,
            -1.859296441078186,
            -1.839195966720581,
            -1.819095492362976,
            -1.798995018005371,
            -1.7788944244384766,
            -1.7587939500808716,
            -1.7386934757232666,
            -1.7185930013656616,
            -1.6984925270080566,
            -1.678391933441162,
            -1.6582914590835571,
            -1.6381909847259521,
            -1.6180903911590576,
            -1.5979899168014526,
            -1.5778894424438477,
            -1.5577889680862427,
            -1.5376884937286377,
            -1.5175879001617432,
            -1.4974874258041382,
            -1.4773869514465332,
            -1.4572863578796387,
            -1.4371860027313232,
            -1.4170854091644287,
            -1.3969849348068237,
            -1.3768844604492188,
            -1.3567838668823242,
            -1.3366835117340088,
            -1.3165829181671143,
            -1.2964824438095093,
            -1.2763819694519043,
            -1.2562813758850098,
            -1.2361809015274048,
            -1.2160804271697998,
            -1.1959798336029053,
            -1.1758794784545898,
            -1.1557788848876953,
            -1.1356784105300903,
            -1.1155779361724854,
            -1.0954773426055908,
            -1.0753768682479858,
            -1.0552763938903809,
            -1.0351759195327759,
            -1.015075445175171,
            -0.9949748516082764,
            -0.9748743772506714,
            -0.9547739028930664,
            -0.9346734285354614,
            -0.9145728349685669,
            -0.8944723606109619,
            -0.8743718862533569,
            -0.854271411895752,
            -0.8341708183288574,
            -0.8140703439712524,
            -0.7939698696136475,
            -0.7738693952560425,
            -0.753768801689148,
            -0.733668327331543,
            -0.713567852973938,
            -0.693467378616333,
            -0.673366904258728,
            -0.6532663106918335,
            -0.6331658363342285,
            -0.6130653619766235,
            -0.5929648876190186,
            -0.572864294052124,
            -0.552763819694519,
            -0.5326633453369141,
            -0.5125628709793091,
            -0.49246227741241455,
            -0.47236180305480957,
            -0.4522613286972046,
            -0.4321608543395996,
            -0.4120602607727051,
            -0.3919597864151001,
            -0.3718593120574951,
            -0.35175883769989014,
            -0.33165836334228516,
            -0.3115577697753906,
            -0.29145729541778564,
            -0.27135682106018066,
            -0.2512563467025757,
            -0.23115575313568115,
            -0.21105527877807617,
            -0.1909548044204712,
            -0.1708543300628662,
            -0.15075373649597168,
            -0.1306532621383667,
            -0.11055278778076172,
            -0.09045231342315674,
            -0.07035183906555176,
            -0.05025124549865723,
            -0.030150771141052246,
            -0.010050296783447266,
            0.010050296783447266,
            0.030150771141052246,
            0.05025124549865723,
            0.07035183906555176,
            0.09045231342315674,
            0.11055278778076172,
            0.1306532621383667,
            0.15075373649597168,
            0.1708543300628662,
            0.1909548044204712,
            0.21105527877807617,
            0.23115575313568115,
            0.2512563467025757,
            0.27135682106018066,
            0.29145729541778564,
            0.3115577697753906,
            0.33165836334228516,
            0.35175883769989014,
            0.3718593120574951,
            0.3919597864151001,
            0.4120602607727051,
            0.4321608543395996,
            0.4522613286972046,
            0.47236180305480957,
            0.49246227741241455,
            0.5125628709793091,
            0.5326633453369141,
            0.552763819694519,
            0.572864294052124,
            0.5929648876190186,
            0.6130653619766235,
            0.6331658363342285,
            0.6532663106918335,
            0.673366904258728,
            0.693467378616333,
            0.713567852973938,
            0.733668327331543,
            0.753768801689148,
            0.7738693952560425,
            0.7939698696136475,
            0.8140703439712524,
            0.8341708183288574,
            0.854271411895752,
            0.8743718862533569,
            0.8944723606109619,
            0.9145728349685669,
            0.9346734285354614,
            0.9547739028930664,
            0.9748743772506714,
            0.9949748516082764,
            1.015075445175171,
            1.0351759195327759,
            1.0552763938903809,
            1.0753768682479858,
            1.0954773426055908,
            1.1155779361724854,
            1.1356784105300903,
            1.1557788848876953,
            1.1758794784545898,
            1.1959798336029053,
            1.2160804271697998,
            1.2361809015274048,
            1.2562813758850098,
            1.2763819694519043,
            1.2964824438095093,
            1.3165829181671143,
            1.3366835117340088,
            1.3567838668823242,
            1.3768844604492188,
            1.3969849348068237,
            1.4170854091644287,
            1.4371860027313232,
            1.4572863578796387,
            1.4773869514465332,
            1.4974874258041382,
            1.5175879001617432,
            1.5376884937286377,
            1.5577889680862427,
            1.5778894424438477,
            1.5979899168014526,
            1.6180903911590576,
            1.6381909847259521,
            1.6582914590835571,
            1.678391933441162,
            1.6984925270080566,
            1.7185930013656616,
            1.7386934757232666,
            1.7587939500808716,
            1.7788944244384766,
            1.798995018005371,
            1.819095492362976,
            1.839195966720581,
            1.859296441078186,
            1.8793970346450806,
            1.8994975090026855,
            1.9195979833602905,
            1.9396984577178955,
            1.95979905128479,
            1.979899525642395,
            2.0
          ],
          "y_values": [
            -0.7043269276618958,
            -0.6972482749874764,
            -0.6901696223130571,
            -0.6830909276574815,
            -0.6760122749830622,
            -0.6689336223086428,
            -0.6618549696342235,
            -0.6547762749786479,
            -0.6476976223042286,
            -0.6406189696298092,
            -0.6335403169553899,
            -0.6264616222998143,
            -0.619382969625395,
            -0.6123043169509756,
            -0.6052256642765563,
            -0.598147011602137,
            -0.5910683169465614,
            -0.583989664272142,
            -0.5769110115977227,
            -0.5698323169421471,
            -0.5627536642677278,
            -0.5556750115933085,
            -0.5485963589188891,
            -0.5415177062444698,
            -0.5344390115888942,
            -0.5273603589144749,
            -0.5202817062400555,
            -0.5132030115844799,
            -0.5061244008912169,
            -0.49904570623564126,
            -0.49196705356122195,
            -0.48488840088680263,
            -0.477809706231227,
            -0.470731095537964,
            -0.46365240088238835,
            -0.45657374820796903,
            -0.4494950955335497,
            -0.44241640087797407,
            -0.43533774820355475,
            -0.42825909552913544,
            -0.4211804008735598,
            -0.4141017901802968,
            -0.40702309552472116,
            -0.39994444285030184,
            -0.3928657901758825,
            -0.3857870955203069,
            -0.37870844284588756,
            -0.37162979017146824,
            -0.3645511374970489,
            -0.3574724848226296,
            -0.35039379016705396,
            -0.34331513749263465,
            -0.33623648481821533,
            -0.329157832143796,
            -0.32207913748822037,
            -0.31500048481380105,
            -0.30792183213938173,
            -0.3008431794649624,
            -0.29376448480938677,
            -0.28668583213496746,
            -0.27960717946054814,
            -0.2725285267861288,
            -0.2654498321305532,
            -0.25837117945613386,
            -0.25129252678171454,
            -0.24421387410729523,
            -0.2371352214328759,
            -0.23005652677730026,
            -0.22297787410288095,
            -0.21589922142846163,
            -0.2088205687540423,
            -0.20174187409846667,
            -0.19466322142404735,
            -0.18758456874962803,
            -0.18050591607520872,
            -0.17342722141963307,
            -0.16634856874521375,
            -0.15926991607079444,
            -0.15219126339637512,
            -0.14511256874079947,
            -0.13803391606638016,
            -0.13095526339196084,
            -0.12387661071754152,
            -0.11679795804312221,
            -0.10971926338754656,
            -0.10264061071312724,
            -0.09556195803870793,
            -0.08848330536428861,
            -0.08140461070871297,
            -0.07432595803429365,
            -0.06724730535987433,
            -0.060168652685455015,
            -0.05308995802987937,
            -0.04601130535546005,
            -0.038932652681040736,
            -0.03185400000662142,
            -0.024775347332202102,
            -0.017696652676626456,
            -0.01061800000220714,
            -0.003539347327787823,
            0.003539347327787823,
            0.01061800000220714,
            0.017696652676626456,
            0.024775347332202102,
            0.03185400000662142,
            0.038932652681040736,
            0.04601130535546005,
            0.05308995802987937,
            0.060168652685455015,
            0.06724730535987433,
            0.07432595803429365,
            0.08140461070871297,
            0.08848330536428861,
            0.09556195803870793,
            0.10264061071312724,
            0.10971926338754656,
            0.11679795804312221,
            0.12387661071754152,
            0.13095526339196084,
            0.13803391606638016,
            0.14511256874079947,
            0.15219126339637512,
            0.15926991607079444,
            0.16634856874521375,
            0.17342722141963307,
            0.18050591607520872,
            0.18758456874962803,
            0.19466322142404735,
            0.20174187409846667,
            0.2088205687540423,
            0.21589922142846163,
            0.22297787410288095,
            0.23005652677730026,
            0.2371352214328759,
            0.24421387410729523,
            0.25129252678171454,
            0.25837117945613386,
            0.2654498321305532,
            0.2725285267861288,
            0.27960717946054814,
            0.28668583213496746,
            0.29376448480938677,
            0.3008431794649624,
            0.30792183213938173,
            0.31500048481380105,
            0.32207913748822037,
            0.329157832143796,
            0.33623648481821533,
            0.34331513749263465,
            0.35039379016705396,
            0.3574724848226296,
            0.3645511374970489,
            0.37162979017146824,
            0.37870844284588756,
            0.3857870955203069,
            0.3928657901758825,
            0.39994444285030184,
            0.40702309552472116,
            0.4141017901802968,
            0.4211804008735598,
            0.42825909552913544,
            0.43533774820355475,
            0.44241640087797407,
            0.4494950955335497,
            0.45657374820796903,
            0.46365240088238835,
            0.470731095537964,
            0.477809706231227,
            0.48488840088680263,
            0.49196705356122195,
            0.49904570623564126,
            0.5061244008912169,
            0.5132030115844799,
            0.5202817062400555,
            0.5273603589144749,
            0.5344390115888942,
            0.5415177062444698,
            0.5485963589188891,
            0.5556750115933085,
            0.5627536642677278,
            0.5698323169421471,
            0.5769110115977227,
            0.583989664272142,
            0.5910683169465614,
            0.598147011602137,
            0.6052256642765563,
            0.6123043169509756,
            0.619382969625395,
            0.6264616222998143,
            0.6335403169553899,
            0.6406189696298092,
            0.6476976223042286,
            0.6547762749786479,
            0.6618549696342235,
            0.6689336223086428,
            0.6760122749830622,
            0.6830909276574815,
            0.6901696223130571,
            0.6972482749874764,
            0.7043269276618958
          ]
        },
        {
          "input_idx": 0,
          "output_idx": 1,
          "x_values": [
            -2.0,
            -1.979899525642395,
            -1.95979905128479,
            -1.9396984577178955,
            -1.9195979833602905,
            -1.8994975090026855,
            -1.8793970346450806,
            -1.859296441078186,
            -1.839195966720581,
            -1.819095492362976,
            -1.798995018005371,
            -1.7788944244384766,
            -1.7587939500808716,
            -1.7386934757232666,
            -1.7185930013656616,
            -1.6984925270080566,
            -1.678391933441162,
            -1.6582914590835571,
            -1.6381909847259521,
            -1.6180903911590576,
            -1.5979899168014526,
            -1.5778894424438477,
            -1.5577889680862427,
            -1.5376884937286377,
            -1.5175879001617432,
            -1.4974874258041382,
            -1.4773869514465332,
            -1.4572863578796387,
            -1.4371860027313232,
            -1.4170854091644287,
            -1.3969849348068237,
            -1.3768844604492188,
            -1.3567838668823242,
            -1.3366835117340088,
            -1.3165829181671143,
            -1.2964824438095093,
            -1.2763819694519043,
            -1.2562813758850098,
            -1.2361809015274048,
            -1.2160804271697998,
            -1.1959798336029053,
            -1.1758794784545898,
            -1.1557788848876953,
            -1.1356784105300903,
            -1.1155779361724854,
            -1.0954773426055908,
            -1.0753768682479858,
            -1.0552763938903809,
            -1.0351759195327759,
            -1.015075445175171,
            -0.9949748516082764,
            -0.9748743772506714,
            -0.9547739028930664,
            -0.9346734285354614,
            -0.9145728349685669,
            -0.8944723606109619,
            -0.8743718862533569,
            -0.854271411895752,
            -0.8341708183288574,
            -0.8140703439712524,
            -0.7939698696136475,
            -0.7738693952560425,
            -0.753768801689148,
            -0.733668327331543,
            -0.713567852973938,
            -0.693467378616333,
            -0.673366904258728,
            -0.6532663106918335,
            -0.6331658363342285,
            -0.6130653619766235,
            -0.5929648876190186,
            -0.572864294052124,
            -0.552763819694519,
            -0.5326633453369141,
            -0.5125628709793091,
            -0.49246227741241455,
            -0.47236180305480957,
            -0.4522613286972046,
            -0.4321608543395996,
            -0.4120602607727051,
            -0.3919597864151001,
            -0.3718593120574951,
            -0.35175883769989014,
            -0.33165836334228516,
            -0.3115577697753906,
            -0.29145729541778564,
            -0.27135682106018066,
            -0.2512563467025757,
            -0.23115575313568115,
            -0.21105527877807617,
            -0.1909548044204712,
            -0.1708543300628662,
            -0.15075373649597168,
            -0.1306532621383667,
            -0.11055278778076172,
            -0.09045231342315674,
            -0.07035183906555176,
            -0.05025124549865723,
            -0.030150771141052246,
            -0.010050296783447266,
            0.010050296783447266,
            0.030150771141052246,
            0.05025124549865723,
            0.07035183906555176,
            0.09045231342315674,
            0.11055278778076172,
            0.1306532621383667,
            0.15075373649597168,
            0.1708543300628662,
            0.1909548044204712,
            0.21105527877807617,
            0.23115575313568115,
            0.2512563467025757,
            0.27135682106018066,
            0.29145729541778564,
            0.3115577697753906,
            0.33165836334228516,
            0.35175883769989014,
            0.3718593120574951,
            0.3919597864151001,
            0.4120602607727051,
            0.4321608543395996,
            0.4522613286972046,
            0.47236180305480957,
            0.49246227741241455,
            0.5125628709793091,
            0.5326633453369141,
            0.552763819694519,
            0.572864294052124,
            0.5929648876190186,
            0.6130653619766235,
            0.6331658363342285,
            0.6532663106918335,
            0.673366904258728,
            0.693467378616333,
            0.713567852973938,
            0.733668327331543,
            0.753768801689148,
            0.7738693952560425,
            0.7939698696136475,
            0.8140703439712524,
            0.8341708183288574,
            0.854271411895752,
            0.8743718862533569,
            0.8944723606109619,
            0.9145728349685669,
            0.9346734285354614,
            0.9547739028930664,
            0.9748743772506714,
            0.9949748516082764,
            1.015075445175171,
            1.0351759195327759,
            1.0552763938903809,
            1.0753768682479858,
            1.0954773426055908,
            1.1155779361724854,
            1.1356784105300903,
            1.1557788848876953,
            1.1758794784545898,
            1.1959798336029053,
            1.2160804271697998,
            1.2361809015274048,
            1.2562813758850098,
            1.2763819694519043,
            1.2964824438095093,
            1.3165829181671143,
            1.3366835117340088,
            1.3567838668823242,
            1.3768844604492188,
            1.3969849348068237,
            1.4170854091644287,
            1.4371860027313232,
            1.4572863578796387,
            1.4773869514465332,
            1.4974874258041382,
            1.5175879001617432,
            1.5376884937286377,
            1.5577889680862427,
            1.5778894424438477,
            1.5979899168014526,
            1.6180903911590576,
            1.6381909847259521,
            1.6582914590835571,
            1.678391933441162,
            1.6984925270080566,
            1.7185930013656616,
            1.7386934757232666,
            1.7587939500808716,
            1.7788944244384766,
            1.798995018005371,
            1.819095492362976,
            1.839195966720581,
            1.859296441078186,
            1.8793970346450806,
            1.8994975090026855,
            1.9195979833602905,
            1.9396984577178955,
            1.95979905128479,
            1.979899525642395,
            2.0
          ],
          "y_values": [
            0.7702117562294006,
            0.7624709454013932,
            0.7547301345733857,
            0.74698927783718,
            0.7392484670091726,
            0.7315076561811651,
            0.7237668453531576,
            0.716025988616952,
            0.7082851777889445,
            0.700544366960937,
            0.6928035561329295,
            0.6850626993967239,
            0.6773218885687164,
            0.669581077740709,
            0.6618402669127015,
            0.654099456084694,
            0.6463585993484884,
            0.6386177885204809,
            0.6308769776924734,
            0.6231361209562678,
            0.6153953101282603,
            0.6076544993002528,
            0.5999136884722454,
            0.5921728776442379,
            0.5844320209080323,
            0.5766912100800248,
            0.5689503992520173,
            0.5612095425158117,
            0.5534687775960023,
            0.5457279208597967,
            0.5379871100317892,
            0.5302462992037817,
            0.5225054424675761,
            0.5147646775477668,
            0.5070238208115612,
            0.4992830099835537,
            0.4915421991555462,
            0.4838013424193406,
            0.4760605315913331,
            0.4683197207633256,
            0.46057886402712,
            0.45283809910731065,
            0.44509724237110504,
            0.43735643154309756,
            0.4296156207150901,
            0.42187476397888446,
            0.414133953150877,
            0.4063931423228695,
            0.398652331494862,
            0.39091152066685453,
            0.3831706639306489,
            0.37542985310264143,
            0.36768904227463395,
            0.35994823144662647,
            0.35220737471042085,
            0.34446656388241337,
            0.3367257530544059,
            0.3289849422263984,
            0.3212440854901928,
            0.3135032746621853,
            0.3057624638341778,
            0.29802165300617034,
            0.2902807962699647,
            0.28253998544195724,
            0.27479917461394976,
            0.2670583637859423,
            0.2593175529579348,
            0.2515766962217292,
            0.2438358853937217,
            0.2360950745657142,
            0.22835426373770673,
            0.22061340700150112,
            0.21287259617349363,
            0.20513178534548615,
            0.19739097451747867,
            0.18965011778127305,
            0.18190930695326557,
            0.1741684961252581,
            0.1664276852972506,
            0.158686828561045,
            0.1509460177330375,
            0.14320520690503002,
            0.13546439607702254,
            0.12772358524901506,
            0.11998272851280944,
            0.11224191768480196,
            0.10450110685679448,
            0.096760296028787,
            0.08901943929258138,
            0.0812786284645739,
            0.07353781763656642,
            0.06579700680855893,
            0.05805615007235332,
            0.050315339244345836,
            0.04257452841633835,
            0.03483371758833087,
            0.027092906760323388,
            0.019352050024117773,
            0.01161123919611029,
            0.0038704283681028073,
            -0.0038704283681028073,
            -0.01161123919611029,
            -0.019352050024117773,
            -0.027092906760323388,
            -0.03483371758833087,
            -0.04257452841633835,
            -0.050315339244345836,
            -0.05805615007235332,
            -0.06579700680855893,
            -0.07353781763656642,
            -0.0812786284645739,
            -0.08901943929258138,
            -0.096760296028787,
            -0.10450110685679448,
            -0.11224191768480196,
            -0.11998272851280944,
            -0.12772358524901506,
            -0.13546439607702254,
            -0.14320520690503002,
            -0.1509460177330375,
            -0.158686828561045,
            -0.1664276852972506,
            -0.1741684961252581,
            -0.18190930695326557,
            -0.18965011778127305,
            -0.19739097451747867,
            -0.20513178534548615,
            -0.21287259617349363,
            -0.22061340700150112,
            -0.22835426373770673,
            -0.2360950745657142,
            -0.2438358853937217,
            -0.2515766962217292,
            -0.2593175529579348,
            -0.2670583637859423,
            -0.27479917461394976,
            -0.28253998544195724,
            -0.2902807962699647,
            -0.29802165300617034,
            -0.3057624638341778,
            -0.3135032746621853,
            -0.3212440854901928,
            -0.3289849422263984,
            -0.3367257530544059,
            -0.34446656388241337,
            -0.35220737471042085,
            -0.35994823144662647,
            -0.36768904227463395,
            -0.37542985310264143,
            -0.3831706639306489,
            -0.39091152066685453,
            -0.398652331494862,
            -0.4063931423228695,
            -0.414133953150877,
            -0.42187476397888446,
            -0.4296156207150901,
            -0.43735643154309756,
            -0.44509724237110504,
            -0.45283809910731065,
            -0.46057886402712,
            -0.4683197207633256,
            -0.4760605315913331,
            -0.4838013424193406,
            -0.4915421991555462,
            -0.4992830099835537,
            -0.5070238208115612,
            -0.5147646775477668,
            -0.5225054424675761,
            -0.5302462992037817,
            -0.5379871100317892,
            -0.5457279208597967,
            -0.5534687775960023,
            -0.5612095425158117,
            -0.5689503992520173,
            -0.5766912100800248,
            -0.5844320209080323,
            -0.5921728776442379,
            -0.5999136884722454,
            -0.6076544993002528,
            -0.6153953101282603,
            -0.6231361209562678,
            -0.6308769776924734,
            -0.6386177885204809,
            -0.6463585993484884,
            -0.654099456084694,
            -0.6618402669127015,
            -0.669581077740709,
            -0.6773218885687164,
            -0.6850626993967239,
            -0.6928035561329295,
            -0.700544366960937,
            -0.7082851777889445,
            -0.716025988616952,
            -0.7237668453531576,
            -0.7315076561811651,
            -0.7392484670091726,
            -0.74698927783718,
            -0.7547301345733857,
            -0.7624709454013932,
            -0.7702117562294006
          ]
        },
        {
          "input_idx": 1,
          "output_idx": 1,
          "x_values": [
            -2.0,
            -1.979899525642395,
            -1.95979905128479,
            -1.9396984577178955,
            -1.9195979833602905,
            -1.8994975090026855,
            -1.8793970346450806,
            -1.859296441078186,
            -1.839195966720581,
            -1.819095492362976,
            -1.798995018005371,
            -1.7788944244384766,
            -1.7587939500808716,
            -1.7386934757232666,
            -1.7185930013656616,
            -1.6984925270080566,
            -1.678391933441162,
            -1.6582914590835571,
            -1.6381909847259521,
            -1.6180903911590576,
            -1.5979899168014526,
            -1.5778894424438477,
            -1.5577889680862427,
            -1.5376884937286377,
            -1.5175879001617432,
            -1.4974874258041382,
            -1.4773869514465332,
            -1.4572863578796387,
            -1.4371860027313232,
            -1.4170854091644287,
            -1.3969849348068237,
            -1.3768844604492188,
            -1.3567838668823242,
            -1.3366835117340088,
            -1.3165829181671143,
            -1.2964824438095093,
            -1.2763819694519043,
            -1.2562813758850098,
            -1.2361809015274048,
            -1.2160804271697998,
            -1.1959798336029053,
            -1.1758794784545898,
            -1.1557788848876953,
            -1.1356784105300903,
            -1.1155779361724854,
            -1.0954773426055908,
            -1.0753768682479858,
            -1.0552763938903809,
            -1.0351759195327759,
            -1.015075445175171,
            -0.9949748516082764,
            -0.9748743772506714,
            -0.9547739028930664,
            -0.9346734285354614,
            -0.9145728349685669,
            -0.8944723606109619,
            -0.8743718862533569,
            -0.854271411895752,
            -0.8341708183288574,
            -0.8140703439712524,
            -0.7939698696136475,
            -0.7738693952560425,
            -0.753768801689148,
            -0.733668327331543,
            -0.713567852973938,
            -0.693467378616333,
            -0.673366904258728,
            -0.6532663106918335,
            -0.6331658363342285,
            -0.6130653619766235,
            -0.5929648876190186,
            -0.572864294052124,
            -0.552763819694519,
            -0.5326633453369141,
            -0.5125628709793091,
            -0.49246227741241455,
            -0.47236180305480957,
            -0.4522613286972046,
            -0.4321608543395996,
            -0.4120602607727051,
            -0.3919597864151001,
            -0.3718593120574951,
            -0.35175883769989014,
            -0.33165836334228516,
            -0.3115577697753906,
            -0.29145729541778564,
            -0.27135682106018066,
            -0.2512563467025757,
            -0.23115575313568115,
            -0.21105527877807617,
            -0.1909548044204712,
            -0.1708543300628662,
            -0.15075373649597168,
            -0.1306532621383667,
            -0.11055278778076172,
            -0.09045231342315674,
            -0.07035183906555176,
            -0.05025124549865723,
            -0.030150771141052246,
            -0.010050296783447266,
            0.010050296783447266,
            0.030150771141052246,
            0.05025124549865723,
            0.07035183906555176,
            0.09045231342315674,
            0.11055278778076172,
            0.1306532621383667,
            0.15075373649597168,
            0.1708543300628662,
            0.1909548044204712,
            0.21105527877807617,
            0.23115575313568115,
            0.2512563467025757,
            0.27135682106018066,
            0.29145729541778564,
            0.3115577697753906,
            0.33165836334228516,
            0.35175883769989014,
            0.3718593120574951,
            0.3919597864151001,
            0.4120602607727051,
            0.4321608543395996,
            0.4522613286972046,
            0.47236180305480957,
            0.49246227741241455,
            0.5125628709793091,
            0.5326633453369141,
            0.552763819694519,
            0.572864294052124,
            0.5929648876190186,
            0.6130653619766235,
            0.6331658363342285,
            0.6532663106918335,
            0.673366904258728,
            0.693467378616333,
            0.713567852973938,
            0.733668327331543,
            0.753768801689148,
            0.7738693952560425,
            0.7939698696136475,
            0.8140703439712524,
            0.8341708183288574,
            0.854271411895752,
            0.8743718862533569,
            0.8944723606109619,
            0.9145728349685669,
            0.9346734285354614,
            0.9547739028930664,
            0.9748743772506714,
            0.9949748516082764,
            1.015075445175171,
            1.0351759195327759,
            1.0552763938903809,
            1.0753768682479858,
            1.0954773426055908,
            1.1155779361724854,
            1.1356784105300903,
            1.1557788848876953,
            1.1758794784545898,
            1.1959798336029053,
            1.2160804271697998,
            1.2361809015274048,
            1.2562813758850098,
            1.2763819694519043,
            1.2964824438095093,
            1.3165829181671143,
            1.3366835117340088,
            1.3567838668823242,
            1.3768844604492188,
            1.3969849348068237,
            1.4170854091644287,
            1.4371860027313232,
            1.4572863578796387,
            1.4773869514465332,
            1.4974874258041382,
            1.5175879001617432,
            1.5376884937286377,
            1.5577889680862427,
            1.5778894424438477,
            1.5979899168014526,
            1.6180903911590576,
            1.6381909847259521,
            1.6582914590835571,
            1.678391933441162,
            1.6984925270080566,
            1.7185930013656616,
            1.7386934757232666,
            1.7587939500808716,
            1.7788944244384766,
            1.798995018005371,
            1.819095492362976,
            1.839195966720581,
            1.859296441078186,
            1.8793970346450806,
            1.8994975090026855,
            1.9195979833602905,
            1.9396984577178955,
            1.95979905128479,
            1.979899525642395,
            2.0
          ],
          "y_values": [
            -0.22458432614803314,
            -0.22232720040360388,
            -0.2200700746591746,
            -0.21781293552847636,
            -0.2155558097840471,
            -0.21329868403961783,
            -0.21104155829518856,
            -0.2087844191644903,
            -0.20652729342006104,
            -0.20427016767563178,
            -0.2020130419312025,
            -0.19975590280050426,
            -0.197498777056075,
            -0.19524165131164573,
            -0.19298452556721646,
            -0.1907273998227872,
            -0.18847026069208894,
            -0.18621313494765968,
            -0.1839560092032304,
            -0.18169887007253216,
            -0.1794417443281029,
            -0.17718461858367363,
            -0.17492749283924436,
            -0.1726703670948151,
            -0.17041322796411684,
            -0.16815610221968758,
            -0.1658989764752583,
            -0.16364183734456006,
            -0.16138472498639977,
            -0.15912758585570153,
            -0.15687046011127226,
            -0.154613334366843,
            -0.15235619523614474,
            -0.15009908287798446,
            -0.1478419437472862,
            -0.14558481800285694,
            -0.14332769225842767,
            -0.14107055312772943,
            -0.13881342738330016,
            -0.1365563016388709,
            -0.13429916250817264,
            -0.13204205015001236,
            -0.1297849110193141,
            -0.12752778527488484,
            -0.12527065953045557,
            -0.12301352039975733,
            -0.12075639465532806,
            -0.11849926891089879,
            -0.11624214316646952,
            -0.11398501742204026,
            -0.11172787829134201,
            -0.10947075254691274,
            -0.10721362680248347,
            -0.10495650105805421,
            -0.10269936192735596,
            -0.10044223618292669,
            -0.09818511043849742,
            -0.09592798469406816,
            -0.09367084556336991,
            -0.09141371981894064,
            -0.08915659407451137,
            -0.08689946833008211,
            -0.08464232919938386,
            -0.08238520345495459,
            -0.08012807771052533,
            -0.07787095196609606,
            -0.07561382622166679,
            -0.07335668709096854,
            -0.07109956134653928,
            -0.06884243560211001,
            -0.06658530985768074,
            -0.06432817072698249,
            -0.062071044982553225,
            -0.05981391923812396,
            -0.05755679349369469,
            -0.05529965436299644,
            -0.053042528618567175,
            -0.05078540287413791,
            -0.04852827712970864,
            -0.04627113799901039,
            -0.044014012254581125,
            -0.04175688651015186,
            -0.03949976076572259,
            -0.037242635021293324,
            -0.034985495890595075,
            -0.03272837014616581,
            -0.03047124440173654,
            -0.028214118657307274,
            -0.025956979526609025,
            -0.02369985378217976,
            -0.02144272803775049,
            -0.019185602293321224,
            -0.016928463162622975,
            -0.014671337418193708,
            -0.012414211673764441,
            -0.010157085929335175,
            -0.007899960184905908,
            -0.0056428210542076584,
            -0.0033856953097783915,
            -0.0011285695653491246,
            0.0011285695653491246,
            0.0033856953097783915,
            0.0056428210542076584,
            0.007899960184905908,
            0.010157085929335175,
            0.012414211673764441,
            0.014671337418193708,
            0.016928463162622975,
            0.019185602293321224,
            0.02144272803775049,
            0.02369985378217976,
            0.025956979526609025,
            0.028214118657307274,
            0.03047124440173654,
            0.03272837014616581,
            0.034985495890595075,
            0.037242635021293324,
            0.03949976076572259,
            0.04175688651015186,
            0.044014012254581125,
            0.04627113799901039,
            0.04852827712970864,
            0.05078540287413791,
            0.053042528618567175,
            0.05529965436299644,
            0.05755679349369469,
            0.05981391923812396,
            0.062071044982553225,
            0.06432817072698249,
            0.06658530985768074,
            0.06884243560211001,
            0.07109956134653928,
            0.07335668709096854,
            0.07561382622166679,
            0.07787095196609606,
            0.08012807771052533,
            0.08238520345495459,
            0.08464232919938386,
            0.08689946833008211,
            0.08915659407451137,
            0.09141371981894064,
            0.09367084556336991,
            0.09592798469406816,
            0.09818511043849742,
            0.10044223618292669,
            0.10269936192735596,
            0.10495650105805421,
            0.10721362680248347,
            0.10947075254691274,
            0.11172787829134201,
            0.11398501742204026,
            0.11624214316646952,
            0.11849926891089879,
            0.12075639465532806,
            0.12301352039975733,
            0.12527065953045557,
            0.12752778527488484,
            0.1297849110193141,
            0.13204205015001236,
            0.13429916250817264,
            0.1365563016388709,
            0.13881342738330016,
            0.14107055312772943,
            0.14332769225842767,
            0.14558481800285694,
            0.1478419437472862,
            0.15009908287798446,
            0.15235619523614474,
            0.154613334366843,
            0.15687046011127226,
            0.15912758585570153,
            0.16138472498639977,
            0.16364183734456006,
            0.1658989764752583,
            0.16815610221968758,
            0.17041322796411684,
            0.1726703670948151,
            0.17492749283924436,
            0.17718461858367363,
            0.1794417443281029,
            0.18169887007253216,
            0.1839560092032304,
            0.18621313494765968,
            0.18847026069208894,
            0.1907273998227872,
            0.19298452556721646,
            0.19524165131164573,
            0.197498777056075,
            0.19975590280050426,
            0.2020130419312025,
            0.20427016767563178,
            0.20652729342006104,
            0.2087844191644903,
            0.21104155829518856,
            0.21329868403961783,
            0.2155558097840471,
            0.21781293552847636,
            0.2200700746591746,
            0.22232720040360388,
            0.22458432614803314
          ]
        },
        {
          "input_idx": 0,
          "output_idx": 2,
          "x_values": [
            -2.0,
            -1.979899525642395,
            -1.95979905128479,
            -1.9396984577178955,
            -1.9195979833602905,
            -1.8994975090026855,
            -1.8793970346450806,
            -1.859296441078186,
            -1.839195966720581,
            -1.819095492362976,
            -1.798995018005371,
            -1.7788944244384766,
            -1.7587939500808716,
            -1.7386934757232666,
            -1.7185930013656616,
            -1.6984925270080566,
            -1.678391933441162,
            -1.6582914590835571,
            -1.6381909847259521,
            -1.6180903911590576,
            -1.5979899168014526,
            -1.5778894424438477,
            -1.5577889680862427,
            -1.5376884937286377,
            -1.5175879001617432,
            -1.4974874258041382,
            -1.4773869514465332,
            -1.4572863578796387,
            -1.4371860027313232,
            -1.4170854091644287,
            -1.3969849348068237,
            -1.3768844604492188,
            -1.3567838668823242,
            -1.3366835117340088,
            -1.3165829181671143,
            -1.2964824438095093,
            -1.2763819694519043,
            -1.2562813758850098,
            -1.2361809015274048,
            -1.2160804271697998,
            -1.1959798336029053,
            -1.1758794784545898,
            -1.1557788848876953,
            -1.1356784105300903,
            -1.1155779361724854,
            -1.0954773426055908,
            -1.0753768682479858,
            -1.0552763938903809,
            -1.0351759195327759,
            -1.015075445175171,
            -0.9949748516082764,
            -0.9748743772506714,
            -0.9547739028930664,
            -0.9346734285354614,
            -0.9145728349685669,
            -0.8944723606109619,
            -0.8743718862533569,
            -0.854271411895752,
            -0.8341708183288574,
            -0.8140703439712524,
            -0.7939698696136475,
            -0.7738693952560425,
            -0.753768801689148,
            -0.733668327331543,
            -0.713567852973938,
            -0.693467378616333,
            -0.673366904258728,
            -0.6532663106918335,
            -0.6331658363342285,
            -0.6130653619766235,
            -0.5929648876190186,
            -0.572864294052124,
            -0.552763819694519,
            -0.5326633453369141,
            -0.5125628709793091,
            -0.49246227741241455,
            -0.47236180305480957,
            -0.4522613286972046,
            -0.4321608543395996,
            -0.4120602607727051,
            -0.3919597864151001,
            -0.3718593120574951,
            -0.35175883769989014,
            -0.33165836334228516,
            -0.3115577697753906,
            -0.29145729541778564,
            -0.27135682106018066,
            -0.2512563467025757,
            -0.23115575313568115,
            -0.21105527877807617,
            -0.1909548044204712,
            -0.1708543300628662,
            -0.15075373649597168,
            -0.1306532621383667,
            -0.11055278778076172,
            -0.09045231342315674,
            -0.07035183906555176,
            -0.05025124549865723,
            -0.030150771141052246,
            -0.010050296783447266,
            0.010050296783447266,
            0.030150771141052246,
            0.05025124549865723,
            0.07035183906555176,
            0.09045231342315674,
            0.11055278778076172,
            0.1306532621383667,
            0.15075373649597168,
            0.1708543300628662,
            0.1909548044204712,
            0.21105527877807617,
            0.23115575313568115,
            0.2512563467025757,
            0.27135682106018066,
            0.29145729541778564,
            0.3115577697753906,
            0.33165836334228516,
            0.35175883769989014,
            0.3718593120574951,
            0.3919597864151001,
            0.4120602607727051,
            0.4321608543395996,
            0.4522613286972046,
            0.47236180305480957,
            0.49246227741241455,
            0.5125628709793091,
            0.5326633453369141,
            0.552763819694519,
            0.572864294052124,
            0.5929648876190186,
            0.6130653619766235,
            0.6331658363342285,
            0.6532663106918335,
            0.673366904258728,
            0.693467378616333,
            0.713567852973938,
            0.733668327331543,
            0.753768801689148,
            0.7738693952560425,
            0.7939698696136475,
            0.8140703439712524,
            0.8341708183288574,
            0.854271411895752,
            0.8743718862533569,
            0.8944723606109619,
            0.9145728349685669,
            0.9346734285354614,
            0.9547739028930664,
            0.9748743772506714,
            0.9949748516082764,
            1.015075445175171,
            1.0351759195327759,
            1.0552763938903809,
            1.0753768682479858,
            1.0954773426055908,
            1.1155779361724854,
            1.1356784105300903,
            1.1557788848876953,
            1.1758794784545898,
            1.1959798336029053,
            1.2160804271697998,
            1.2361809015274048,
            1.2562813758850098,
            1.2763819694519043,
            1.2964824438095093,
            1.3165829181671143,
            1.3366835117340088,
            1.3567838668823242,
            1.3768844604492188,
            1.3969849348068237,
            1.4170854091644287,
            1.4371860027313232,
            1.4572863578796387,
            1.4773869514465332,
            1.4974874258041382,
            1.5175879001617432,
            1.5376884937286377,
            1.5577889680862427,
            1.5778894424438477,
            1.5979899168014526,
            1.6180903911590576,
            1.6381909847259521,
            1.6582914590835571,
            1.678391933441162,
            1.6984925270080566,
            1.7185930013656616,
            1.7386934757232666,
            1.7587939500808716,
            1.7788944244384766,
            1.798995018005371,
            1.819095492362976,
            1.839195966720581,
            1.859296441078186,
            1.8793970346450806,
            1.8994975090026855,
            1.9195979833602905,
            1.9396984577178955,
            1.95979905128479,
            1.979899525642395,
            2.0
          ],
          "y_values": [
            0.5029485821723938,
            0.4978938296328188,
            0.4928390770932438,
            0.48778429457559724,
            0.48272954203602225,
            0.47767478949644726,
            0.47262003695687227,
            0.4675652544392257,
            0.4625105018996507,
            0.4574557493600757,
            0.4524009968205007,
            0.44734621430285415,
            0.44229146176327916,
            0.43723670922370417,
            0.4321819566841292,
            0.4271272041445542,
            0.4220724216269076,
            0.4170176690873326,
            0.41196291654775763,
            0.40690813403011106,
            0.40185338149053607,
            0.3967986289509611,
            0.3917438764113861,
            0.3866891238718111,
            0.3816343413541645,
            0.3765795888145895,
            0.37152483627501454,
            0.36647005375736796,
            0.36141533119586455,
            0.356360548678218,
            0.351305796138643,
            0.346251043599068,
            0.3411962610814214,
            0.336141538519918,
            0.33108675600227144,
            0.32603200346269645,
            0.32097725092312146,
            0.3159224684054749,
            0.3108677158658999,
            0.3058129633263249,
            0.30075818080867833,
            0.2957034582471749,
            0.29064867572952835,
            0.28559392318995336,
            0.28053917065037837,
            0.2754843881327318,
            0.2704296355931568,
            0.2653748830535818,
            0.2603201305140068,
            0.25526537797443183,
            0.25021059545678526,
            0.24515584291721026,
            0.24010109037763527,
            0.23504633783806028,
            0.2299915553204137,
            0.22493680278083872,
            0.21988205024126373,
            0.21482729770168874,
            0.20977251518404216,
            0.20471776264446717,
            0.19966301010489218,
            0.1946082575653172,
            0.18955347504767062,
            0.18449872250809563,
            0.17944396996852063,
            0.17438921742894564,
            0.16933446488937065,
            0.16427968237172408,
            0.1592249298321491,
            0.1541701772925741,
            0.1491154247529991,
            0.14406064223535253,
            0.13900588969577754,
            0.13395113715620255,
            0.12889638461662756,
            0.12384160209898099,
            0.118786849559406,
            0.113732097019831,
            0.10867734448025601,
            0.10362256196260944,
            0.09856780942303445,
            0.09351305688345946,
            0.08845830434388446,
            0.08340355180430947,
            0.0783487692866629,
            0.07329401674708791,
            0.06823926420751292,
            0.06318451166793793,
            0.058129729150291354,
            0.05307497661071636,
            0.04802022407114137,
            0.04296547153156638,
            0.03791068901391981,
            0.032855936474344816,
            0.027801183934769824,
            0.022746431395194833,
            0.01769167885561984,
            0.012636896337973269,
            0.007582143798398278,
            0.002527391258823286,
            -0.002527391258823286,
            -0.007582143798398278,
            -0.012636896337973269,
            -0.01769167885561984,
            -0.022746431395194833,
            -0.027801183934769824,
            -0.032855936474344816,
            -0.03791068901391981,
            -0.04296547153156638,
            -0.04802022407114137,
            -0.05307497661071636,
            -0.058129729150291354,
            -0.06318451166793793,
            -0.06823926420751292,
            -0.07329401674708791,
            -0.0783487692866629,
            -0.08340355180430947,
            -0.08845830434388446,
            -0.09351305688345946,
            -0.09856780942303445,
            -0.10362256196260944,
            -0.10867734448025601,
            -0.113732097019831,
            -0.118786849559406,
            -0.12384160209898099,
            -0.12889638461662756,
            -0.13395113715620255,
            -0.13900588969577754,
            -0.14406064223535253,
            -0.1491154247529991,
            -0.1541701772925741,
            -0.1592249298321491,
            -0.16427968237172408,
            -0.16933446488937065,
            -0.17438921742894564,
            -0.17944396996852063,
            -0.18449872250809563,
            -0.18955347504767062,
            -0.1946082575653172,
            -0.19966301010489218,
            -0.20471776264446717,
            -0.20977251518404216,
            -0.21482729770168874,
            -0.21988205024126373,
            -0.22493680278083872,
            -0.2299915553204137,
            -0.23504633783806028,
            -0.24010109037763527,
            -0.24515584291721026,
            -0.25021059545678526,
            -0.25526537797443183,
            -0.2603201305140068,
            -0.2653748830535818,
            -0.2704296355931568,
            -0.2754843881327318,
            -0.28053917065037837,
            -0.28559392318995336,
            -0.29064867572952835,
            -0.2957034582471749,
            -0.30075818080867833,
            -0.3058129633263249,
            -0.3108677158658999,
            -0.3159224684054749,
            -0.32097725092312146,
            -0.32603200346269645,
            -0.33108675600227144,
            -0.336141538519918,
            -0.3411962610814214,
            -0.346251043599068,
            -0.351305796138643,
            -0.356360548678218,
            -0.36141533119586455,
            -0.36647005375736796,
            -0.37152483627501454,
            -0.3765795888145895,
            -0.3816343413541645,
            -0.3866891238718111,
            -0.3917438764113861,
            -0.3967986289509611,
            -0.40185338149053607,
            -0.40690813403011106,
            -0.41196291654775763,
            -0.4170176690873326,
            -0.4220724216269076,
            -0.4271272041445542,
            -0.4321819566841292,
            -0.43723670922370417,
            -0.44229146176327916,
            -0.44734621430285415,
            -0.4524009968205007,
            -0.4574557493600757,
            -0.4625105018996507,
            -0.4675652544392257,
            -0.47262003695687227,
            -0.47767478949644726,
            -0.48272954203602225,
            -0.48778429457559724,
            -0.4928390770932438,
            -0.4978938296328188,
            -0.5029485821723938
          ]
        },
        {
          "input_idx": 1,
          "output_idx": 2,
          "x_values": [
            -2.0,
            -1.979899525642395,
            -1.95979905128479,
            -1.9396984577178955,
            -1.9195979833602905,
            -1.8994975090026855,
            -1.8793970346450806,
            -1.859296441078186,
            -1.839195966720581,
            -1.819095492362976,
            -1.798995018005371,
            -1.7788944244384766,
            -1.7587939500808716,
            -1.7386934757232666,
            -1.7185930013656616,
            -1.6984925270080566,
            -1.678391933441162,
            -1.6582914590835571,
            -1.6381909847259521,
            -1.6180903911590576,
            -1.5979899168014526,
            -1.5778894424438477,
            -1.5577889680862427,
            -1.5376884937286377,
            -1.5175879001617432,
            -1.4974874258041382,
            -1.4773869514465332,
            -1.4572863578796387,
            -1.4371860027313232,
            -1.4170854091644287,
            -1.3969849348068237,
            -1.3768844604492188,
            -1.3567838668823242,
            -1.3366835117340088,
            -1.3165829181671143,
            -1.2964824438095093,
            -1.2763819694519043,
            -1.2562813758850098,
            -1.2361809015274048,
            -1.2160804271697998,
            -1.1959798336029053,
            -1.1758794784545898,
            -1.1557788848876953,
            -1.1356784105300903,
            -1.1155779361724854,
            -1.0954773426055908,
            -1.0753768682479858,
            -1.0552763938903809,
            -1.0351759195327759,
            -1.015075445175171,
            -0.9949748516082764,
            -0.9748743772506714,
            -0.9547739028930664,
            -0.9346734285354614,
            -0.9145728349685669,
            -0.8944723606109619,
            -0.8743718862533569,
            -0.854271411895752,
            -0.8341708183288574,
            -0.8140703439712524,
            -0.7939698696136475,
            -0.7738693952560425,
            -0.753768801689148,
            -0.733668327331543,
            -0.713567852973938,
            -0.693467378616333,
            -0.673366904258728,
            -0.6532663106918335,
            -0.6331658363342285,
            -0.6130653619766235,
            -0.5929648876190186,
            -0.572864294052124,
            -0.552763819694519,
            -0.5326633453369141,
            -0.5125628709793091,
            -0.49246227741241455,
            -0.47236180305480957,
            -0.4522613286972046,
            -0.4321608543395996,
            -0.4120602607727051,
            -0.3919597864151001,
            -0.3718593120574951,
            -0.35175883769989014,
            -0.33165836334228516,
            -0.3115577697753906,
            -0.29145729541778564,
            -0.27135682106018066,
            -0.2512563467025757,
            -0.23115575313568115,
            -0.21105527877807617,
            -0.1909548044204712,
            -0.1708543300628662,
            -0.15075373649597168,
            -0.1306532621383667,
            -0.11055278778076172,
            -0.09045231342315674,
            -0.07035183906555176,
            -0.05025124549865723,
            -0.030150771141052246,
            -0.010050296783447266,
            0.010050296783447266,
            0.030150771141052246,
            0.05025124549865723,
            0.07035183906555176,
            0.09045231342315674,
            0.11055278778076172,
            0.1306532621383667,
            0.15075373649597168,
            0.1708543300628662,
            0.1909548044204712,
            0.21105527877807617,
            0.23115575313568115,
            0.2512563467025757,
            0.27135682106018066,
            0.29145729541778564,
            0.3115577697753906,
            0.33165836334228516,
            0.35175883769989014,
            0.3718593120574951,
            0.3919597864151001,
            0.4120602607727051,
            0.4321608543395996,
            0.4522613286972046,
            0.47236180305480957,
            0.49246227741241455,
            0.5125628709793091,
            0.5326633453369141,
            0.552763819694519,
            0.572864294052124,
            0.5929648876190186,
            0.6130653619766235,
            0.6331658363342285,
            0.6532663106918335,
            0.673366904258728,
            0.693467378616333,
            0.713567852973938,
            0.733668327331543,
            0.753768801689148,
            0.7738693952560425,
            0.7939698696136475,
            0.8140703439712524,
            0.8341708183288574,
            0.854271411895752,
            0.8743718862533569,
            0.8944723606109619,
            0.9145728349685669,
            0.9346734285354614,
            0.9547739028930664,
            0.9748743772506714,
            0.9949748516082764,
            1.015075445175171,
            1.0351759195327759,
            1.0552763938903809,
            1.0753768682479858,
            1.0954773426055908,
            1.1155779361724854,
            1.1356784105300903,
            1.1557788848876953,
            1.1758794784545898,
            1.1959798336029053,
            1.2160804271697998,
            1.2361809015274048,
            1.2562813758850098,
            1.2763819694519043,
            1.2964824438095093,
            1.3165829181671143,
            1.3366835117340088,
            1.3567838668823242,
            1.3768844604492188,
            1.3969849348068237,
            1.4170854091644287,
            1.4371860027313232,
            1.4572863578796387,
            1.4773869514465332,
            1.4974874258041382,
            1.5175879001617432,
            1.5376884937286377,
            1.5577889680862427,
            1.5778894424438477,
            1.5979899168014526,
            1.6180903911590576,
            1.6381909847259521,
            1.6582914590835571,
            1.678391933441162,
            1.6984925270080566,
            1.7185930013656616,
            1.7386934757232666,
            1.7587939500808716,
            1.7788944244384766,
            1.798995018005371,
            1.819095492362976,
            1.839195966720581,
            1.859296441078186,
            1.8793970346450806,
            1.8994975090026855,
            1.9195979833602905,
            1.9396984577178955,
            1.95979905128479,
            1.979899525642395,
            2.0
          ],
          "y_values": [
            0.2869502305984497,
            0.2840663127224232,
            0.28118239484639673,
            0.2782984598668037,
            0.2754145419907772,
            0.2725306241147507,
            0.2696467062387242,
            0.26676277125913117,
            0.2638788533831047,
            0.2609949355070782,
            0.2581110176310517,
            0.25522708265145866,
            0.25234316477543217,
            0.24945924689940568,
            0.2465753290233792,
            0.2436914111473527,
            0.24080747616775966,
            0.23792355829173317,
            0.23503964041570669,
            0.23215570543611364,
            0.22927178756008715,
            0.22638786968406066,
            0.22350395180803417,
            0.2206200339320077,
            0.21773609895241464,
            0.21485218107638815,
            0.21196826320036166,
            0.2090843282207686,
            0.2062004274483087,
            0.20331649246871564,
            0.20043257459268915,
            0.19754865671666266,
            0.1946647217370696,
            0.1917808209646097,
            0.18889688598501664,
            0.18601296810899015,
            0.18312905023296366,
            0.1802451152533706,
            0.17736119737734413,
            0.17447727950131764,
            0.1715933445217246,
            0.16870944374926466,
            0.16582550876967161,
            0.16294159089364513,
            0.16005767301761864,
            0.1571737380380256,
            0.1542898201619991,
            0.15140590228597262,
            0.14852198440994613,
            0.14563806653391964,
            0.1427541315543266,
            0.1398702136783001,
            0.13698629580227362,
            0.13410237792624713,
            0.13121844294665408,
            0.1283345250706276,
            0.1254506071946011,
            0.12256668931857462,
            0.11968275433898157,
            0.11679883646295508,
            0.11391491858692859,
            0.1110310007109021,
            0.10814706573130906,
            0.10526314785528257,
            0.10237922997925608,
            0.0994953121032296,
            0.0966113942272031,
            0.09372745924761006,
            0.09084354137158357,
            0.08795962349555708,
            0.0850757056195306,
            0.08219177063993754,
            0.07930785276391106,
            0.07642393488788457,
            0.07354001701185808,
            0.07065608203226503,
            0.06777216415623855,
            0.06488824628021206,
            0.06200432840418557,
            0.05912039342459252,
            0.056236475548566034,
            0.05335255767253955,
            0.05046863979651306,
            0.04758472192048657,
            0.04470078694089352,
            0.041816869064867035,
            0.03893295118884055,
            0.03604903331281406,
            0.03316509833322101,
            0.030281180457194523,
            0.027397262581168036,
            0.02451334470514155,
            0.0216294097255485,
            0.01874549184952201,
            0.015861573973495524,
            0.012977656097469037,
            0.01009373822144255,
            0.0072098032418494995,
            0.004325885365823012,
            0.0014419674897965251,
            -0.0014419674897965251,
            -0.004325885365823012,
            -0.0072098032418494995,
            -0.01009373822144255,
            -0.012977656097469037,
            -0.015861573973495524,
            -0.01874549184952201,
            -0.0216294097255485,
            -0.02451334470514155,
            -0.027397262581168036,
            -0.030281180457194523,
            -0.03316509833322101,
            -0.03604903331281406,
            -0.03893295118884055,
            -0.041816869064867035,
            -0.04470078694089352,
            -0.04758472192048657,
            -0.05046863979651306,
            -0.05335255767253955,
            -0.056236475548566034,
            -0.05912039342459252,
            -0.06200432840418557,
            -0.06488824628021206,
            -0.06777216415623855,
            -0.07065608203226503,
            -0.07354001701185808,
            -0.07642393488788457,
            -0.07930785276391106,
            -0.08219177063993754,
            -0.0850757056195306,
            -0.08795962349555708,
            -0.09084354137158357,
            -0.09372745924761006,
            -0.0966113942272031,
            -0.0994953121032296,
            -0.10237922997925608,
            -0.10526314785528257,
            -0.10814706573130906,
            -0.1110310007109021,
            -0.11391491858692859,
            -0.11679883646295508,
            -0.11968275433898157,
            -0.12256668931857462,
            -0.1254506071946011,
            -0.1283345250706276,
            -0.13121844294665408,
            -0.13410237792624713,
            -0.13698629580227362,
            -0.1398702136783001,
            -0.1427541315543266,
            -0.14563806653391964,
            -0.14852198440994613,
            -0.15140590228597262,
            -0.1542898201619991,
            -0.1571737380380256,
            -0.16005767301761864,
            -0.16294159089364513,
            -0.16582550876967161,
            -0.16870944374926466,
            -0.1715933445217246,
            -0.17447727950131764,
            -0.17736119737734413,
            -0.1802451152533706,
            -0.18312905023296366,
            -0.18601296810899015,
            -0.18889688598501664,
            -0.1917808209646097,
            -0.1946647217370696,
            -0.19754865671666266,
            -0.20043257459268915,
            -0.20331649246871564,
            -0.2062004274483087,
            -0.2090843282207686,
            -0.21196826320036166,
            -0.21485218107638815,
            -0.21773609895241464,
            -0.2206200339320077,
            -0.22350395180803417,
            -0.22638786968406066,
            -0.22927178756008715,
            -0.23215570543611364,
            -0.23503964041570669,
            -0.23792355829173317,
            -0.24080747616775966,
            -0.2436914111473527,
            -0.2465753290233792,
            -0.24945924689940568,
            -0.25234316477543217,
            -0.25522708265145866,
            -0.2581110176310517,
            -0.2609949355070782,
            -0.2638788533831047,
            -0.26676277125913117,
            -0.2696467062387242,
            -0.2725306241147507,
            -0.2754145419907772,
            -0.2782984598668037,
            -0.28118239484639673,
            -0.2840663127224232,
            -0.2869502305984497
          ]
        },
        {
          "input_idx": 0,
          "output_idx": 3,
          "x_values": [
            -2.0,
            -1.979899525642395,
            -1.95979905128479,
            -1.9396984577178955,
            -1.9195979833602905,
            -1.8994975090026855,
            -1.8793970346450806,
            -1.859296441078186,
            -1.839195966720581,
            -1.819095492362976,
            -1.798995018005371,
            -1.7788944244384766,
            -1.7587939500808716,
            -1.7386934757232666,
            -1.7185930013656616,
            -1.6984925270080566,
            -1.678391933441162,
            -1.6582914590835571,
            -1.6381909847259521,
            -1.6180903911590576,
            -1.5979899168014526,
            -1.5778894424438477,
            -1.5577889680862427,
            -1.5376884937286377,
            -1.5175879001617432,
            -1.4974874258041382,
            -1.4773869514465332,
            -1.4572863578796387,
            -1.4371860027313232,
            -1.4170854091644287,
            -1.3969849348068237,
            -1.3768844604492188,
            -1.3567838668823242,
            -1.3366835117340088,
            -1.3165829181671143,
            -1.2964824438095093,
            -1.2763819694519043,
            -1.2562813758850098,
            -1.2361809015274048,
            -1.2160804271697998,
            -1.1959798336029053,
            -1.1758794784545898,
            -1.1557788848876953,
            -1.1356784105300903,
            -1.1155779361724854,
            -1.0954773426055908,
            -1.0753768682479858,
            -1.0552763938903809,
            -1.0351759195327759,
            -1.015075445175171,
            -0.9949748516082764,
            -0.9748743772506714,
            -0.9547739028930664,
            -0.9346734285354614,
            -0.9145728349685669,
            -0.8944723606109619,
            -0.8743718862533569,
            -0.854271411895752,
            -0.8341708183288574,
            -0.8140703439712524,
            -0.7939698696136475,
            -0.7738693952560425,
            -0.753768801689148,
            -0.733668327331543,
            -0.713567852973938,
            -0.693467378616333,
            -0.673366904258728,
            -0.6532663106918335,
            -0.6331658363342285,
            -0.6130653619766235,
            -0.5929648876190186,
            -0.572864294052124,
            -0.552763819694519,
            -0.5326633453369141,
            -0.5125628709793091,
            -0.49246227741241455,
            -0.47236180305480957,
            -0.4522613286972046,
            -0.4321608543395996,
            -0.4120602607727051,
            -0.3919597864151001,
            -0.3718593120574951,
            -0.35175883769989014,
            -0.33165836334228516,
            -0.3115577697753906,
            -0.29145729541778564,
            -0.27135682106018066,
            -0.2512563467025757,
            -0.23115575313568115,
            -0.21105527877807617,
            -0.1909548044204712,
            -0.1708543300628662,
            -0.15075373649597168,
            -0.1306532621383667,
            -0.11055278778076172,
            -0.09045231342315674,
            -0.07035183906555176,
            -0.05025124549865723,
            -0.030150771141052246,
            -0.010050296783447266,
            0.010050296783447266,
            0.030150771141052246,
            0.05025124549865723,
            0.07035183906555176,
            0.09045231342315674,
            0.11055278778076172,
            0.1306532621383667,
            0.15075373649597168,
            0.1708543300628662,
            0.1909548044204712,
            0.21105527877807617,
            0.23115575313568115,
            0.2512563467025757,
            0.27135682106018066,
            0.29145729541778564,
            0.3115577697753906,
            0.33165836334228516,
            0.35175883769989014,
            0.3718593120574951,
            0.3919597864151001,
            0.4120602607727051,
            0.4321608543395996,
            0.4522613286972046,
            0.47236180305480957,
            0.49246227741241455,
            0.5125628709793091,
            0.5326633453369141,
            0.552763819694519,
            0.572864294052124,
            0.5929648876190186,
            0.6130653619766235,
            0.6331658363342285,
            0.6532663106918335,
            0.673366904258728,
            0.693467378616333,
            0.713567852973938,
            0.733668327331543,
            0.753768801689148,
            0.7738693952560425,
            0.7939698696136475,
            0.8140703439712524,
            0.8341708183288574,
            0.854271411895752,
            0.8743718862533569,
            0.8944723606109619,
            0.9145728349685669,
            0.9346734285354614,
            0.9547739028930664,
            0.9748743772506714,
            0.9949748516082764,
            1.015075445175171,
            1.0351759195327759,
            1.0552763938903809,
            1.0753768682479858,
            1.0954773426055908,
            1.1155779361724854,
            1.1356784105300903,
            1.1557788848876953,
            1.1758794784545898,
            1.1959798336029053,
            1.2160804271697998,
            1.2361809015274048,
            1.2562813758850098,
            1.2763819694519043,
            1.2964824438095093,
            1.3165829181671143,
            1.3366835117340088,
            1.3567838668823242,
            1.3768844604492188,
            1.3969849348068237,
            1.4170854091644287,
            1.4371860027313232,
            1.4572863578796387,
            1.4773869514465332,
            1.4974874258041382,
            1.5175879001617432,
            1.5376884937286377,
            1.5577889680862427,
            1.5778894424438477,
            1.5979899168014526,
            1.6180903911590576,
            1.6381909847259521,
            1.6582914590835571,
            1.678391933441162,
            1.6984925270080566,
            1.7185930013656616,
            1.7386934757232666,
            1.7587939500808716,
            1.7788944244384766,
            1.798995018005371,
            1.819095492362976,
            1.839195966720581,
            1.859296441078186,
            1.8793970346450806,
            1.8994975090026855,
            1.9195979833602905,
            1.9396984577178955,
            1.95979905128479,
            1.979899525642395,
            2.0
          ],
          "y_values": [
            0.3427518606185913,
            0.3393071231258986,
            0.3358623856332059,
            0.3324176277109103,
            0.32897289021821763,
            0.32552815272552493,
            0.32208341523283224,
            0.31863865731053664,
            0.31519391981784395,
            0.31174918232515125,
            0.30830444483245856,
            0.30485968691016296,
            0.30141494941747027,
            0.2979702119247776,
            0.2945254744320849,
            0.2910807369393922,
            0.2876359790170966,
            0.2841912415244039,
            0.2807465040317112,
            0.2773017461094156,
            0.2738570086167229,
            0.2704122711240302,
            0.2669675336313375,
            0.2635227961386448,
            0.2600780382163492,
            0.25663330072365653,
            0.25318856323096384,
            0.24974380530866824,
            0.24629908824557845,
            0.24285433032328285,
            0.23940959283059016,
            0.23596485533789746,
            0.23252009741560187,
            0.22907538035251207,
            0.22563062243021648,
            0.22218588493752378,
            0.21874114744483109,
            0.2152963895225355,
            0.2118516520298428,
            0.2084069145371501,
            0.2049621566148545,
            0.2015174395517647,
            0.19807268162946912,
            0.19462794413677642,
            0.19118320664408373,
            0.18773844872178813,
            0.18429371122909544,
            0.18084897373640274,
            0.17740423624371005,
            0.17395949875101735,
            0.17051474082872176,
            0.16707000333602906,
            0.16362526584333636,
            0.16018052835064367,
            0.15673577042834808,
            0.15329103293565538,
            0.14984629544296268,
            0.14640155795027,
            0.1429568000279744,
            0.1395120625352817,
            0.136067325042589,
            0.1326225875498963,
            0.12917782962760072,
            0.12573309213490802,
            0.12228835464221532,
            0.11884361714952263,
            0.11539887965682993,
            0.11195412173453434,
            0.10850938424184164,
            0.10506464674914895,
            0.10161990925645625,
            0.09817515133416066,
            0.09473041384146796,
            0.09128567634877527,
            0.08784093885608257,
            0.08439618093378698,
            0.08095144344109428,
            0.07750670594840159,
            0.0740619684557089,
            0.0706172105334133,
            0.0671724730407206,
            0.06372773554802791,
            0.06028299805533521,
            0.05683826056264252,
            0.053393502640346924,
            0.04994876514765423,
            0.04650402765496153,
