{
  "metadata": {
    "architecture": [
      1,
      10,
      1
    ],
    "grid_size": 5,
    "spline_order": 3,
    "num_layers": 2,
    "total_parameters": 200
  },
  "layers": [
    {
      "layer_index": 0,
      "input_features": 1,
      "output_features": 10,
      "grid_points": [
        -1.0,
        -0.6000000238418579,
        -0.19999998807907104,
        0.19999998807907104,
        0.6000000238418579,
        1.0
      ],
      "grid_range": [
        -1.0,
        1.0
      ],
      "spline_coefficients": [
        [
          [
            0.5352833271026611,
            0.788227379322052,
            -0.5354620814323425,
            0.24748733639717102,
            -1.0961430072784424,
            -0.20675618946552277,
            -0.7787655591964722,
            0.8677988052368164
          ]
        ],
        [
          [
            0.015321112237870693,
            -0.6581215262413025,
            -0.1801309883594513,
            0.19198009371757507,
            -0.7762229442596436,
            -0.3255114257335663,
            0.6119736433029175,
            0.8957148790359497
          ]
        ],
        [
          [
            -0.6425923109054565,
            -0.008083067834377289,
            0.5623742341995239,
            0.06162531301379204,
            0.22631384432315826,
            0.4391642212867737,
            -0.19020819664001465,
            -0.34094786643981934
          ]
        ],
        [
          [
            0.7443377375602722,
            -0.08115559816360474,
            0.8302635550498962,
            -0.774557888507843,
            -0.6866243481636047,
            0.4188199043273926,
            -0.9533665180206299,
            0.13038742542266846
          ]
        ],
        [
          [
            0.46159273386001587,
            0.4037306606769562,
            0.4317960739135742,
            0.5198824405670166,
            0.6306234002113342,
            0.7817866802215576,
            0.5142368078231812,
            0.0008172988891601562
          ]
        ],
        [
          [
            0.23906095325946808,
            1.4212400913238525,
            0.8165541887283325,
            -0.0014276235597208142,
            -0.5785415172576904,
            0.4228995740413666,
            0.29697299003601074,
            -0.3242119550704956
          ]
        ],
        [
          [
            0.534983217716217,
            0.4531764090061188,
            0.8090209364891052,
            -0.7648784518241882,
            0.9256569743156433,
            -0.49364617466926575,
            0.3142200708389282,
            0.8525753021240234
          ]
        ],
        [
          [
            -0.31828758120536804,
            -1.5235084295272827,
            -0.796532154083252,
            0.12595713138580322,
            -0.6244363784790039,
            0.81365567445755,
            0.8667891025543213,
            -0.27416229248046875
          ]
        ],
        [
          [
            -0.6603270769119263,
            1.344069480895996,
            -0.09934926778078079,
            -0.06480616331100464,
            0.38314467668533325,
            -0.4027078151702881,
            0.7239011526107788,
            0.0032385587692260742
          ]
        ],
        [
          [
            -0.6400895118713379,
            0.6858608722686768,
            0.15810619294643402,
            0.11370620876550674,
            0.8292182087898254,
            0.5870009660720825,
            -0.011335611343383789,
            0.8624585866928101
          ]
        ]
      ],
      "base_weights": [
        [
          -0.6555639505386353
        ],
        [
          0.4663740396499634
        ],
        [
          0.4919240176677704
        ],
        [
          0.4973570704460144
        ],
        [
          -0.4957273006439209
        ],
        [
          0.31604281067848206
        ],
        [
          -0.6288354396820068
        ],
        [
          0.8594415187835693
        ],
        [
          1.0037455558776855
        ],
        [
          -0.9922295808792114
        ]
      ],
      "scale_base": 1.0,
      "scale_spline": 1.0,
      "spline_evaluations": [
        {
          "input_idx": 0,
          "output_idx": 0,
          "x_values": [
            -2.0,
            -1.979899525642395,
            -1.95979905128479,
            -1.9396984577178955,
            -1.9195979833602905,
            -1.8994975090026855,
            -1.8793970346450806,
            -1.859296441078186,
            -1.839195966720581,
            -1.819095492362976,
            -1.798995018005371,
            -1.7788944244384766,
            -1.7587939500808716,
            -1.7386934757232666,
            -1.7185930013656616,
            -1.6984925270080566,
            -1.678391933441162,
            -1.6582914590835571,
            -1.6381909847259521,
            -1.6180903911590576,
            -1.5979899168014526,
            -1.5778894424438477,
            -1.5577889680862427,
            -1.5376884937286377,
            -1.5175879001617432,
            -1.4974874258041382,
            -1.4773869514465332,
            -1.4572863578796387,
            -1.4371860027313232,
            -1.4170854091644287,
            -1.3969849348068237,
            -1.3768844604492188,
            -1.3567838668823242,
            -1.3366835117340088,
            -1.3165829181671143,
            -1.2964824438095093,
            -1.2763819694519043,
            -1.2562813758850098,
            -1.2361809015274048,
            -1.2160804271697998,
            -1.1959798336029053,
            -1.1758794784545898,
            -1.1557788848876953,
            -1.1356784105300903,
            -1.1155779361724854,
            -1.0954773426055908,
            -1.0753768682479858,
            -1.0552763938903809,
            -1.0351759195327759,
            -1.015075445175171,
            -0.9949748516082764,
            -0.9748743772506714,
            -0.9547739028930664,
            -0.9346734285354614,
            -0.9145728349685669,
            -0.8944723606109619,
            -0.8743718862533569,
            -0.854271411895752,
            -0.8341708183288574,
            -0.8140703439712524,
            -0.7939698696136475,
            -0.7738693952560425,
            -0.753768801689148,
            -0.733668327331543,
            -0.713567852973938,
            -0.693467378616333,
            -0.673366904258728,
            -0.6532663106918335,
            -0.6331658363342285,
            -0.6130653619766235,
            -0.5929648876190186,
            -0.572864294052124,
            -0.552763819694519,
            -0.5326633453369141,
            -0.5125628709793091,
            -0.49246227741241455,
            -0.47236180305480957,
            -0.4522613286972046,
            -0.4321608543395996,
            -0.4120602607727051,
            -0.3919597864151001,
            -0.3718593120574951,
            -0.35175883769989014,
            -0.33165836334228516,
            -0.3115577697753906,
            -0.29145729541778564,
            -0.27135682106018066,
            -0.2512563467025757,
            -0.23115575313568115,
            -0.21105527877807617,
            -0.1909548044204712,
            -0.1708543300628662,
            -0.15075373649597168,
            -0.1306532621383667,
            -0.11055278778076172,
            -0.09045231342315674,
            -0.07035183906555176,
            -0.05025124549865723,
            -0.030150771141052246,
            -0.010050296783447266,
            0.010050296783447266,
            0.030150771141052246,
            0.05025124549865723,
            0.07035183906555176,
            0.09045231342315674,
            0.11055278778076172,
            0.1306532621383667,
            0.15075373649597168,
            0.1708543300628662,
            0.1909548044204712,
            0.21105527877807617,
            0.23115575313568115,
            0.2512563467025757,
            0.27135682106018066,
            0.29145729541778564,
            0.3115577697753906,
            0.33165836334228516,
            0.35175883769989014,
            0.3718593120574951,
            0.3919597864151001,
            0.4120602607727051,
            0.4321608543395996,
            0.4522613286972046,
            0.47236180305480957,
            0.49246227741241455,
            0.5125628709793091,
            0.5326633453369141,
            0.552763819694519,
            0.572864294052124,
            0.5929648876190186,
            0.6130653619766235,
            0.6331658363342285,
            0.6532663106918335,
            0.673366904258728,
            0.693467378616333,
            0.713567852973938,
            0.733668327331543,
            0.753768801689148,
            0.7738693952560425,
            0.7939698696136475,
            0.8140703439712524,
            0.8341708183288574,
            0.854271411895752,
            0.8743718862533569,
            0.8944723606109619,
            0.9145728349685669,
            0.9346734285354614,
            0.9547739028930664,
            0.9748743772506714,
            0.9949748516082764,
            1.015075445175171,
            1.0351759195327759,
            1.0552763938903809,
            1.0753768682479858,
            1.0954773426055908,
            1.1155779361724854,
            1.1356784105300903,
            1.1557788848876953,
            1.1758794784545898,
            1.1959798336029053,
            1.2160804271697998,
            1.2361809015274048,
            1.2562813758850098,
            1.2763819694519043,
            1.2964824438095093,
            1.3165829181671143,
            1.3366835117340088,
            1.3567838668823242,
            1.3768844604492188,
            1.3969849348068237,
            1.4170854091644287,
            1.4371860027313232,
            1.4572863578796387,
            1.4773869514465332,
            1.4974874258041382,
            1.5175879001617432,
            1.5376884937286377,
            1.5577889680862427,
            1.5778894424438477,
            1.5979899168014526,
            1.6180903911590576,
            1.6381909847259521,
            1.6582914590835571,
            1.678391933441162,
            1.6984925270080566,
            1.7185930013656616,
            1.7386934757232666,
            1.7587939500808716,
            1.7788944244384766,
            1.798995018005371,
            1.819095492362976,
            1.839195966720581,
            1.859296441078186,
            1.8793970346450806,
            1.8994975090026855,
            1.9195979833602905,
            1.9396984577178955,
            1.95979905128479,
            1.979899525642395,
            2.0
          ],
          "y_values": [
            2.1922860145568848,
            2.1702530201468164,
            2.148220025736748,
            2.1261869006562506,
            2.1041539062461823,
            2.082120911836114,
            2.0600879174260456,
            2.038054792345548,
            2.0160217979354798,
            1.9939888035254114,
            1.971955809115343,
            1.9499226840348456,
            1.9278896896247772,
            1.905856695214709,
            1.8838237008046406,
            1.8617907063945722,
            1.8397575813140747,
            1.8177245869040064,
            1.795691592493938,
            1.7736584674134406,
            1.7516254730033722,
            1.729592478593304,
            1.7075594841832356,
            1.6855264897731672,
            1.6634933646926697,
            1.6414603702826014,
            1.619427375872533,
            1.5973942507920356,
            1.5753613870523964,
            1.5533282619718989,
            1.5312952675618305,
            1.5092622731517622,
            1.4872291480712647,
            1.4651962843316255,
            1.443163159251128,
            1.4211301648410597,
            1.3990971704309914,
            1.3770640453504939,
            1.3550310509404255,
            1.3329980565303572,
            1.3109649314498597,
            1.2889320677102205,
            1.266898942629723,
            1.2448659482196547,
            1.2228329538095863,
            1.2007998287290889,
            1.1787668343190205,
            1.1567338399089522,
            1.1347008454988838,
            1.1126678510888155,
            1.090634726008318,
            1.0686017315982497,
            1.0465687371881813,
            1.024535742778113,
            1.0025026176976155,
            0.9804696232875472,
            0.9584366288774788,
            0.9364036344674105,
            0.914370509386913,
            0.8923375149768447,
            0.8703045205667763,
            0.848271526156708,
            0.8262384010762105,
            0.8042054066661422,
            0.7821724122560738,
            0.7601394178460055,
            0.7381064234359371,
            0.7160732983554396,
            0.6940403039453713,
            0.672007309535303,
            0.6499743151252346,
            0.6279411900447371,
            0.6059081956346688,
            0.5838752012246005,
            0.5618422068145321,
            0.5398090817340346,
            0.5177760873239663,
            0.49574309291389795,
            0.4737100985038296,
            0.45167697342333213,
            0.4296439790132638,
            0.40761098460319545,
            0.3855779901931271,
            0.36354499578305877,
            0.3415118707025613,
            0.31947887629249294,
            0.2974458818824246,
            0.27541288747235626,
            0.2533797623918588,
            0.23134676798179044,
            0.2093137735717221,
            0.18728077916165375,
            0.16524765408115627,
            0.14321465967108793,
            0.12118166526101959,
            0.09914867085095125,
            0.07711567644088291,
            0.05508255136038542,
            0.03304955695031708,
            0.011016562540248742,
            -0.011016562540248742,
            -0.03304955695031708,
            -0.05508255136038542,
            -0.07711567644088291,
            -0.09914867085095125,
            -0.12118166526101959,
            -0.14321465967108793,
            -0.16524765408115627,
            -0.18728077916165375,
            -0.2093137735717221,
            -0.23134676798179044,
            -0.2533797623918588,
            -0.27541288747235626,
            -0.2974458818824246,
            -0.31947887629249294,
            -0.3415118707025613,
            -0.36354499578305877,
            -0.3855779901931271,
            -0.40761098460319545,
            -0.4296439790132638,
            -0.45167697342333213,
            -0.4737100985038296,
            -0.49574309291389795,
            -0.5177760873239663,
            -0.5398090817340346,
            -0.5618422068145321,
            -0.5838752012246005,
            -0.6059081956346688,
            -0.6279411900447371,
            -0.6499743151252346,
            -0.672007309535303,
            -0.6940403039453713,
            -0.7160732983554396,
            -0.7381064234359371,
            -0.7601394178460055,
            -0.7821724122560738,
            -0.8042054066661422,
            -0.8262384010762105,
            -0.848271526156708,
            -0.8703045205667763,
            -0.8923375149768447,
            -0.914370509386913,
            -0.9364036344674105,
            -0.9584366288774788,
            -0.9804696232875472,
            -1.0025026176976155,
            -1.024535742778113,
            -1.0465687371881813,
            -1.0686017315982497,
            -1.090634726008318,
            -1.1126678510888155,
            -1.1347008454988838,
            -1.1567338399089522,
            -1.1787668343190205,
            -1.2007998287290889,
            -1.2228329538095863,
            -1.2448659482196547,
            -1.266898942629723,
            -1.2889320677102205,
            -1.3109649314498597,
            -1.3329980565303572,
            -1.3550310509404255,
            -1.3770640453504939,
            -1.3990971704309914,
            -1.4211301648410597,
            -1.443163159251128,
            -1.4651962843316255,
            -1.4872291480712647,
            -1.5092622731517622,
            -1.5312952675618305,
            -1.5533282619718989,
            -1.5753613870523964,
            -1.5973942507920356,
            -1.619427375872533,
            -1.6414603702826014,
            -1.6634933646926697,
            -1.6855264897731672,
            -1.7075594841832356,
            -1.729592478593304,
            -1.7516254730033722,
            -1.7736584674134406,
            -1.795691592493938,
            -1.8177245869040064,
            -1.8397575813140747,
            -1.8617907063945722,
            -1.8838237008046406,
            -1.905856695214709,
            -1.9278896896247772,
            -1.9499226840348456,
            -1.971955809115343,
            -1.9939888035254114,
            -2.0160217979354798,
            -2.038054792345548,
            -2.0600879174260456,
            -2.082120911836114,
            -2.1041539062461823,
            -2.1261869006562506,
            -2.148220025736748,
            -2.1702530201468164,
            -2.1922860145568848
          ]
        },
        {
          "input_idx": 0,
          "output_idx": 1,
          "x_values": [
            -2.0,
            -1.979899525642395,
            -1.95979905128479,
            -1.9396984577178955,
            -1.9195979833602905,
            -1.8994975090026855,
            -1.8793970346450806,
            -1.859296441078186,
            -1.839195966720581,
            -1.819095492362976,
            -1.798995018005371,
            -1.7788944244384766,
            -1.7587939500808716,
            -1.7386934757232666,
            -1.7185930013656616,
            -1.6984925270080566,
            -1.678391933441162,
            -1.6582914590835571,
            -1.6381909847259521,
            -1.6180903911590576,
            -1.5979899168014526,
            -1.5778894424438477,
            -1.5577889680862427,
            -1.5376884937286377,
            -1.5175879001617432,
            -1.4974874258041382,
            -1.4773869514465332,
            -1.4572863578796387,
            -1.4371860027313232,
            -1.4170854091644287,
            -1.3969849348068237,
            -1.3768844604492188,
            -1.3567838668823242,
            -1.3366835117340088,
            -1.3165829181671143,
            -1.2964824438095093,
            -1.2763819694519043,
            -1.2562813758850098,
            -1.2361809015274048,
            -1.2160804271697998,
            -1.1959798336029053,
            -1.1758794784545898,
            -1.1557788848876953,
            -1.1356784105300903,
            -1.1155779361724854,
            -1.0954773426055908,
            -1.0753768682479858,
            -1.0552763938903809,
            -1.0351759195327759,
            -1.015075445175171,
            -0.9949748516082764,
            -0.9748743772506714,
            -0.9547739028930664,
            -0.9346734285354614,
            -0.9145728349685669,
            -0.8944723606109619,
            -0.8743718862533569,
            -0.854271411895752,
            -0.8341708183288574,
            -0.8140703439712524,
            -0.7939698696136475,
            -0.7738693952560425,
            -0.753768801689148,
            -0.733668327331543,
            -0.713567852973938,
            -0.693467378616333,
            -0.673366904258728,
            -0.6532663106918335,
            -0.6331658363342285,
            -0.6130653619766235,
            -0.5929648876190186,
            -0.572864294052124,
            -0.552763819694519,
            -0.5326633453369141,
            -0.5125628709793091,
            -0.49246227741241455,
            -0.47236180305480957,
            -0.4522613286972046,
            -0.4321608543395996,
            -0.4120602607727051,
            -0.3919597864151001,
            -0.3718593120574951,
            -0.35175883769989014,
            -0.33165836334228516,
            -0.3115577697753906,
            -0.29145729541778564,
            -0.27135682106018066,
            -0.2512563467025757,
            -0.23115575313568115,
            -0.21105527877807617,
            -0.1909548044204712,
            -0.1708543300628662,
            -0.15075373649597168,
            -0.1306532621383667,
            -0.11055278778076172,
            -0.09045231342315674,
            -0.07035183906555176,
            -0.05025124549865723,
            -0.030150771141052246,
            -0.010050296783447266,
            0.010050296783447266,
            0.030150771141052246,
            0.05025124549865723,
            0.07035183906555176,
            0.09045231342315674,
            0.11055278778076172,
            0.1306532621383667,
            0.15075373649597168,
            0.1708543300628662,
            0.1909548044204712,
            0.21105527877807617,
            0.23115575313568115,
            0.2512563467025757,
            0.27135682106018066,
            0.29145729541778564,
            0.3115577697753906,
            0.33165836334228516,
            0.35175883769989014,
            0.3718593120574951,
            0.3919597864151001,
            0.4120602607727051,
            0.4321608543395996,
            0.4522613286972046,
            0.47236180305480957,
            0.49246227741241455,
            0.5125628709793091,
            0.5326633453369141,
            0.552763819694519,
            0.572864294052124,
            0.5929648876190186,
            0.6130653619766235,
            0.6331658363342285,
            0.6532663106918335,
            0.673366904258728,
            0.693467378616333,
            0.713567852973938,
            0.733668327331543,
            0.753768801689148,
            0.7738693952560425,
            0.7939698696136475,
            0.8140703439712524,
            0.8341708183288574,
            0.854271411895752,
            0.8743718862533569,
            0.8944723606109619,
            0.9145728349685669,
            0.9346734285354614,
            0.9547739028930664,
            0.9748743772506714,
            0.9949748516082764,
            1.015075445175171,
            1.0351759195327759,
            1.0552763938903809,
            1.0753768682479858,
            1.0954773426055908,
            1.1155779361724854,
            1.1356784105300903,
            1.1557788848876953,
            1.1758794784545898,
            1.1959798336029053,
            1.2160804271697998,
            1.2361809015274048,
            1.2562813758850098,
            1.2763819694519043,
            1.2964824438095093,
            1.3165829181671143,
            1.3366835117340088,
            1.3567838668823242,
            1.3768844604492188,
            1.3969849348068237,
            1.4170854091644287,
            1.4371860027313232,
            1.4572863578796387,
            1.4773869514465332,
            1.4974874258041382,
            1.5175879001617432,
            1.5376884937286377,
            1.5577889680862427,
            1.5778894424438477,
            1.5979899168014526,
            1.6180903911590576,
            1.6381909847259521,
            1.6582914590835571,
            1.678391933441162,
            1.6984925270080566,
            1.7185930013656616,
            1.7386934757232666,
            1.7587939500808716,
            1.7788944244384766,
            1.798995018005371,
            1.819095492362976,
            1.839195966720581,
            1.859296441078186,
            1.8793970346450806,
            1.8994975090026855,
            1.9195979833602905,
            1.9396984577178955,
            1.95979905128479,
            1.979899525642395,
            2.0
          ],
          "y_values": [
            1.552445888519287,
            1.5368434391324115,
            1.521240989745536,
            1.5056384478256746,
            1.490035998438799,
            1.4744335490519234,
            1.4588310996650478,
            1.4432285577451864,
            1.4276261083583108,
            1.4120236589714352,
            1.3964212095845596,
            1.3808186676646983,
            1.3652162182778227,
            1.349613768890947,
            1.3340113195040715,
            1.3184088701171959,
            1.3028063281973346,
            1.287203878810459,
            1.2716014294235833,
            1.255998887503722,
            1.2403964381168464,
            1.2247939887299708,
            1.2091915393430952,
            1.1935890899562196,
            1.1779865480363583,
            1.1623840986494827,
            1.146781649262607,
            1.1311791073427457,
            1.1155767504888559,
            1.0999742085689945,
            1.084371759182119,
            1.0687693097952433,
            1.053166767875382,
            1.037564411021492,
            1.0219618691016308,
            1.0063594197147552,
            0.9907569703278796,
            0.9751544284080182,
            0.9595519790211426,
            0.943949529634267,
            0.9283469877144057,
            0.9127446308605158,
            0.8971420889406545,
            0.8815396395537789,
            0.8659371901669033,
            0.850334648247042,
            0.8347321988601664,
            0.8191297494732908,
            0.8035273000864152,
            0.7879248506995395,
            0.7723223087796782,
            0.7567198593928026,
            0.741117410005927,
            0.7255149606190514,
            0.7099124186991901,
            0.6943099693123145,
            0.6787075199254389,
            0.6631050705385633,
            0.647502528618702,
            0.6319000792318263,
            0.6162976298449507,
            0.6006951804580751,
            0.5850926385382138,
            0.5694901891513382,
            0.5538877397644626,
            0.538285290377587,
            0.5226828409907114,
            0.5070802990708501,
            0.49147784968397445,
            0.47587540029709885,
            0.46027295091022324,
            0.4446704089903619,
            0.4290679596034863,
            0.4134655102166107,
            0.3978630608297351,
            0.3822605189098738,
            0.3666580695229982,
            0.35105562013612257,
            0.33545317074924696,
            0.31985062882938564,
            0.30424817944251004,
            0.28864573005563443,
            0.2730432806687588,
            0.2574408312818832,
            0.2418382893620219,
            0.2262358399751463,
            0.21063339058827069,
            0.19503094120139508,
            0.17942839928153376,
            0.16382594989465815,
            0.14822350050778255,
            0.13262105112090694,
            0.11701850920104562,
            0.10141605981417001,
            0.0858136104272944,
            0.0702111610404188,
            0.054608711653543196,
            0.03900616973368187,
            0.023403720346806267,
            0.007801270959930662,
            -0.007801270959930662,
            -0.023403720346806267,
            -0.03900616973368187,
            -0.054608711653543196,
            -0.0702111610404188,
            -0.0858136104272944,
            -0.10141605981417001,
            -0.11701850920104562,
            -0.13262105112090694,
            -0.14822350050778255,
            -0.16382594989465815,
            -0.17942839928153376,
            -0.19503094120139508,
            -0.21063339058827069,
            -0.2262358399751463,
            -0.2418382893620219,
            -0.2574408312818832,
            -0.2730432806687588,
            -0.28864573005563443,
            -0.30424817944251004,
            -0.31985062882938564,
            -0.33545317074924696,
            -0.35105562013612257,
            -0.3666580695229982,
            -0.3822605189098738,
            -0.3978630608297351,
            -0.4134655102166107,
            -0.4290679596034863,
            -0.4446704089903619,
            -0.46027295091022324,
            -0.47587540029709885,
            -0.49147784968397445,
            -0.5070802990708501,
            -0.5226828409907114,
            -0.538285290377587,
            -0.5538877397644626,
            -0.5694901891513382,
            -0.5850926385382138,
            -0.6006951804580751,
            -0.6162976298449507,
            -0.6319000792318263,
            -0.647502528618702,
            -0.6631050705385633,
            -0.6787075199254389,
            -0.6943099693123145,
            -0.7099124186991901,
            -0.7255149606190514,
            -0.741117410005927,
            -0.7567198593928026,
            -0.7723223087796782,
            -0.7879248506995395,
            -0.8035273000864152,
            -0.8191297494732908,
            -0.8347321988601664,
            -0.850334648247042,
            -0.8659371901669033,
            -0.8815396395537789,
            -0.8971420889406545,
            -0.9127446308605158,
            -0.9283469877144057,
            -0.943949529634267,
            -0.9595519790211426,
            -0.9751544284080182,
            -0.9907569703278796,
            -1.0063594197147552,
            -1.0219618691016308,
            -1.037564411021492,
            -1.053166767875382,
            -1.0687693097952433,
            -1.084371759182119,
            -1.0999742085689945,
            -1.1155767504888559,
            -1.1311791073427457,
            -1.146781649262607,
            -1.1623840986494827,
            -1.1779865480363583,
            -1.1935890899562196,
            -1.2091915393430952,
            -1.2247939887299708,
            -1.2403964381168464,
            -1.255998887503722,
            -1.2716014294235833,
            -1.287203878810459,
            -1.3028063281973346,
            -1.3184088701171959,
            -1.3340113195040715,
            -1.349613768890947,
            -1.3652162182778227,
            -1.3808186676646983,
            -1.3964212095845596,
            -1.4120236589714352,
            -1.4276261083583108,
            -1.4432285577451864,
            -1.4588310996650478,
            -1.4744335490519234,
            -1.490035998438799,
            -1.5056384478256746,
            -1.521240989745536,
            -1.5368434391324115,
            -1.552445888519287
          ]
        },
        {
          "input_idx": 0,
          "output_idx": 2,
          "x_values": [
            -2.0,
            -1.979899525642395,
            -1.95979905128479,
            -1.9396984577178955,
            -1.9195979833602905,
            -1.8994975090026855,
            -1.8793970346450806,
            -1.859296441078186,
            -1.839195966720581,
            -1.819095492362976,
            -1.798995018005371,
            -1.7788944244384766,
            -1.7587939500808716,
            -1.7386934757232666,
            -1.7185930013656616,
            -1.6984925270080566,
            -1.678391933441162,
            -1.6582914590835571,
            -1.6381909847259521,
            -1.6180903911590576,
            -1.5979899168014526,
            -1.5778894424438477,
            -1.5577889680862427,
            -1.5376884937286377,
            -1.5175879001617432,
            -1.4974874258041382,
            -1.4773869514465332,
            -1.4572863578796387,
            -1.4371860027313232,
            -1.4170854091644287,
            -1.3969849348068237,
            -1.3768844604492188,
            -1.3567838668823242,
            -1.3366835117340088,
            -1.3165829181671143,
            -1.2964824438095093,
            -1.2763819694519043,
            -1.2562813758850098,
            -1.2361809015274048,
            -1.2160804271697998,
            -1.1959798336029053,
            -1.1758794784545898,
            -1.1557788848876953,
            -1.1356784105300903,
            -1.1155779361724854,
            -1.0954773426055908,
            -1.0753768682479858,
            -1.0552763938903809,
            -1.0351759195327759,
            -1.015075445175171,
            -0.9949748516082764,
            -0.9748743772506714,
            -0.9547739028930664,
            -0.9346734285354614,
            -0.9145728349685669,
            -0.8944723606109619,
            -0.8743718862533569,
            -0.854271411895752,
            -0.8341708183288574,
            -0.8140703439712524,
            -0.7939698696136475,
            -0.7738693952560425,
            -0.753768801689148,
            -0.733668327331543,
            -0.713567852973938,
            -0.693467378616333,
            -0.673366904258728,
            -0.6532663106918335,
            -0.6331658363342285,
            -0.6130653619766235,
            -0.5929648876190186,
            -0.572864294052124,
            -0.552763819694519,
            -0.5326633453369141,
            -0.5125628709793091,
            -0.49246227741241455,
            -0.47236180305480957,
            -0.4522613286972046,
            -0.4321608543395996,
            -0.4120602607727051,
            -0.3919597864151001,
            -0.3718593120574951,
            -0.35175883769989014,
            -0.33165836334228516,
            -0.3115577697753906,
            -0.29145729541778564,
            -0.27135682106018066,
            -0.2512563467025757,
            -0.23115575313568115,
            -0.21105527877807617,
            -0.1909548044204712,
            -0.1708543300628662,
            -0.15075373649597168,
            -0.1306532621383667,
            -0.11055278778076172,
            -0.09045231342315674,
            -0.07035183906555176,
            -0.05025124549865723,
            -0.030150771141052246,
            -0.010050296783447266,
            0.010050296783447266,
            0.030150771141052246,
            0.05025124549865723,
            0.07035183906555176,
            0.09045231342315674,
            0.11055278778076172,
            0.1306532621383667,
            0.15075373649597168,
            0.1708543300628662,
            0.1909548044204712,
            0.21105527877807617,
            0.23115575313568115,
            0.2512563467025757,
            0.27135682106018066,
            0.29145729541778564,
            0.3115577697753906,
            0.33165836334228516,
            0.35175883769989014,
            0.3718593120574951,
            0.3919597864151001,
            0.4120602607727051,
            0.4321608543395996,
            0.4522613286972046,
            0.47236180305480957,
            0.49246227741241455,
            0.5125628709793091,
            0.5326633453369141,
            0.552763819694519,
            0.572864294052124,
            0.5929648876190186,
            0.6130653619766235,
            0.6331658363342285,
            0.6532663106918335,
            0.673366904258728,
            0.693467378616333,
            0.713567852973938,
            0.733668327331543,
            0.753768801689148,
            0.7738693952560425,
            0.7939698696136475,
            0.8140703439712524,
            0.8341708183288574,
            0.854271411895752,
            0.8743718862533569,
            0.8944723606109619,
            0.9145728349685669,
            0.9346734285354614,
            0.9547739028930664,
            0.9748743772506714,
            0.9949748516082764,
            1.015075445175171,
            1.0351759195327759,
            1.0552763938903809,
            1.0753768682479858,
            1.0954773426055908,
            1.1155779361724854,
            1.1356784105300903,
            1.1557788848876953,
            1.1758794784545898,
            1.1959798336029053,
            1.2160804271697998,
            1.2361809015274048,
            1.2562813758850098,
            1.2763819694519043,
            1.2964824438095093,
            1.3165829181671143,
            1.3366835117340088,
            1.3567838668823242,
            1.3768844604492188,
            1.3969849348068237,
            1.4170854091644287,
            1.4371860027313232,
            1.4572863578796387,
            1.4773869514465332,
            1.4974874258041382,
            1.5175879001617432,
            1.5376884937286377,
            1.5577889680862427,
            1.5778894424438477,
            1.5979899168014526,
            1.6180903911590576,
            1.6381909847259521,
            1.6582914590835571,
            1.678391933441162,
            1.6984925270080566,
            1.7185930013656616,
            1.7386934757232666,
            1.7587939500808716,
            1.7788944244384766,
            1.798995018005371,
            1.819095492362976,
            1.839195966720581,
            1.859296441078186,
            1.8793970346450806,
            1.8994975090026855,
            1.9195979833602905,
            1.9396984577178955,
            1.95979905128479,
            1.979899525642395,
            2.0
          ],
          "y_values": [
            -0.45262768864631653,
            -0.4480786730217279,
            -0.44352965739713923,
            -0.438980614793838,
            -0.43443159916924934,
            -0.4298825835446607,
            -0.42533356792007204,
            -0.4207845253167708,
            -0.41623550969218215,
            -0.4116864940675935,
            -0.40713747844300485,
            -0.4025884358397036,
            -0.39803942021511496,
            -0.3934904045905263,
            -0.38894138896593766,
            -0.384392373341349,
            -0.37984333073804777,
            -0.3752943151134591,
            -0.3707452994888705,
            -0.3661962568855692,
            -0.3616472412609806,
            -0.35709822563639193,
            -0.3525492100118033,
            -0.34800019438721463,
            -0.3434511517839134,
            -0.33890213615932474,
            -0.3343531205347361,
            -0.32980407793143485,
            -0.3252550892855588,
            -0.32070604668225755,
            -0.3161570310576689,
            -0.31160801543308025,
            -0.307058972829779,
            -0.30250998418390296,
            -0.2979609415806017,
            -0.29341192595601306,
            -0.2888629103314244,
            -0.28431386772812317,
            -0.2797648521035345,
            -0.2752158364789459,
            -0.27066679387564463,
            -0.2661178052297686,
            -0.26156876262646733,
            -0.2570197470018787,
            -0.25247073137729004,
            -0.2479216887739888,
            -0.24337267314940014,
            -0.2388236575248115,
            -0.23427464190022285,
            -0.2297256262756342,
            -0.22517658367233295,
            -0.2206275680477443,
            -0.21607855242315566,
            -0.211529536798567,
            -0.20698049419526576,
            -0.20243147857067711,
            -0.19788246294608847,
            -0.19333344732149982,
            -0.18878440471819857,
            -0.18423538909360992,
            -0.17968637346902128,
            -0.17513735784443263,
            -0.17058831524113138,
            -0.16603929961654273,
            -0.1614902839919541,
            -0.15694126836736544,
            -0.1523922527427768,
            -0.14784321013947554,
            -0.1432941945148869,
            -0.13874517889029825,
            -0.1341961632657096,
            -0.12964712066240835,
            -0.1250981050378197,
            -0.12054908941323106,
            -0.11600007378864241,
            -0.11145103118534117,
            -0.10690201556075252,
            -0.10235299993616387,
            -0.09780398431157522,
            -0.09325494170827398,
            -0.08870592608368533,
            -0.08415691045909668,
            -0.07960789483450803,
            -0.07505887920991938,
            -0.07050983660661814,
            -0.06596082098202949,
            -0.06141180535744084,
            -0.05686278973285219,
            -0.05231374712955095,
            -0.0477647315049623,
            -0.04321571588037365,
            -0.038666700255785,
            -0.03411765765248376,
            -0.02956864202789511,
            -0.02501962640330646,
            -0.020470610778717813,
            -0.015921595154129164,
            -0.011372552550827919,
            -0.006823536926239271,
            -0.0022745213016506227,
            0.0022745213016506227,
            0.006823536926239271,
            0.011372552550827919,
            0.015921595154129164,
            0.020470610778717813,
            0.02501962640330646,
            0.02956864202789511,
            0.03411765765248376,
            0.038666700255785,
            0.04321571588037365,
            0.0477647315049623,
            0.05231374712955095,
            0.05686278973285219,
            0.06141180535744084,
            0.06596082098202949,
            0.07050983660661814,
            0.07505887920991938,
            0.07960789483450803,
            0.08415691045909668,
            0.08870592608368533,
            0.09325494170827398,
            0.09780398431157522,
            0.10235299993616387,
            0.10690201556075252,
            0.11145103118534117,
            0.11600007378864241,
            0.12054908941323106,
            0.1250981050378197,
            0.12964712066240835,
            0.1341961632657096,
            0.13874517889029825,
            0.1432941945148869,
            0.14784321013947554,
            0.1523922527427768,
            0.15694126836736544,
            0.1614902839919541,
            0.16603929961654273,
            0.17058831524113138,
            0.17513735784443263,
            0.17968637346902128,
            0.18423538909360992,
            0.18878440471819857,
            0.19333344732149982,
            0.19788246294608847,
            0.20243147857067711,
            0.20698049419526576,
            0.211529536798567,
            0.21607855242315566,
            0.2206275680477443,
            0.22517658367233295,
            0.2297256262756342,
            0.23427464190022285,
            0.2388236575248115,
            0.24337267314940014,
            0.2479216887739888,
            0.25247073137729004,
            0.2570197470018787,
            0.26156876262646733,
            0.2661178052297686,
            0.27066679387564463,
            0.2752158364789459,
            0.2797648521035345,
            0.28431386772812317,
            0.2888629103314244,
            0.29341192595601306,
            0.2979609415806017,
            0.30250998418390296,
            0.307058972829779,
            0.31160801543308025,
            0.3161570310576689,
            0.32070604668225755,
            0.3252550892855588,
            0.32980407793143485,
            0.3343531205347361,
            0.33890213615932474,
            0.3434511517839134,
            0.34800019438721463,
            0.3525492100118033,
            0.35709822563639193,
            0.3616472412609806,
            0.3661962568855692,
            0.3707452994888705,
            0.3752943151134591,
            0.37984333073804777,
            0.384392373341349,
            0.38894138896593766,
            0.3934904045905263,
            0.39803942021511496,
            0.4025884358397036,
            0.40713747844300485,
            0.4116864940675935,
            0.41623550969218215,
            0.4207845253167708,
            0.42533356792007204,
            0.4298825835446607,
            0.43443159916924934,
            0.438980614793838,
            0.44352965739713923,
            0.4480786730217279,
            0.45262768864631653
          ]
        },
        {
          "input_idx": 0,
          "output_idx": 3,
          "x_values": [
            -2.0,
            -1.979899525642395,
            -1.95979905128479,
            -1.9396984577178955,
            -1.9195979833602905,
            -1.8994975090026855,
            -1.8793970346450806,
            -1.859296441078186,
            -1.839195966720581,
            -1.819095492362976,
            -1.798995018005371,
            -1.7788944244384766,
            -1.7587939500808716,
            -1.7386934757232666,
            -1.7185930013656616,
            -1.6984925270080566,
            -1.678391933441162,
            -1.6582914590835571,
            -1.6381909847259521,
            -1.6180903911590576,
            -1.5979899168014526,
            -1.5778894424438477,
            -1.5577889680862427,
            -1.5376884937286377,
            -1.5175879001617432,
            -1.4974874258041382,
            -1.4773869514465332,
            -1.4572863578796387,
            -1.4371860027313232,
            -1.4170854091644287,
            -1.3969849348068237,
            -1.3768844604492188,
            -1.3567838668823242,
            -1.3366835117340088,
            -1.3165829181671143,
            -1.2964824438095093,
            -1.2763819694519043,
            -1.2562813758850098,
            -1.2361809015274048,
            -1.2160804271697998,
            -1.1959798336029053,
            -1.1758794784545898,
            -1.1557788848876953,
            -1.1356784105300903,
            -1.1155779361724854,
            -1.0954773426055908,
            -1.0753768682479858,
            -1.0552763938903809,
            -1.0351759195327759,
            -1.015075445175171,
            -0.9949748516082764,
            -0.9748743772506714,
            -0.9547739028930664,
            -0.9346734285354614,
            -0.9145728349685669,
            -0.8944723606109619,
            -0.8743718862533569,
            -0.854271411895752,
            -0.8341708183288574,
            -0.8140703439712524,
            -0.7939698696136475,
            -0.7738693952560425,
            -0.753768801689148,
            -0.733668327331543,
            -0.713567852973938,
            -0.693467378616333,
            -0.673366904258728,
            -0.6532663106918335,
            -0.6331658363342285,
            -0.6130653619766235,
            -0.5929648876190186,
            -0.572864294052124,
            -0.552763819694519,
            -0.5326633453369141,
            -0.5125628709793091,
            -0.49246227741241455,
            -0.47236180305480957,
            -0.4522613286972046,
            -0.4321608543395996,
            -0.4120602607727051,
            -0.3919597864151001,
            -0.3718593120574951,
            -0.35175883769989014,
            -0.33165836334228516,
            -0.3115577697753906,
            -0.29145729541778564,
            -0.27135682106018066,
            -0.2512563467025757,
            -0.23115575313568115,
            -0.21105527877807617,
            -0.1909548044204712,
            -0.1708543300628662,
            -0.15075373649597168,
            -0.1306532621383667,
            -0.11055278778076172,
            -0.09045231342315674,
            -0.07035183906555176,
            -0.05025124549865723,
            -0.030150771141052246,
            -0.010050296783447266,
            0.010050296783447266,
            0.030150771141052246,
            0.05025124549865723,
            0.07035183906555176,
            0.09045231342315674,
            0.11055278778076172,
            0.1306532621383667,
            0.15075373649597168,
            0.1708543300628662,
            0.1909548044204712,
            0.21105527877807617,
            0.23115575313568115,
            0.2512563467025757,
            0.27135682106018066,
            0.29145729541778564,
            0.3115577697753906,
            0.33165836334228516,
            0.35175883769989014,
            0.3718593120574951,
            0.3919597864151001,
            0.4120602607727051,
            0.4321608543395996,
            0.4522613286972046,
            0.47236180305480957,
            0.49246227741241455,
            0.5125628709793091,
            0.5326633453369141,
            0.552763819694519,
            0.572864294052124,
            0.5929648876190186,
            0.6130653619766235,
            0.6331658363342285,
            0.6532663106918335,
            0.673366904258728,
            0.693467378616333,
            0.713567852973938,
            0.733668327331543,
            0.753768801689148,
            0.7738693952560425,
            0.7939698696136475,
            0.8140703439712524,
            0.8341708183288574,
            0.854271411895752,
            0.8743718862533569,
            0.8944723606109619,
            0.9145728349685669,
            0.9346734285354614,
            0.9547739028930664,
            0.9748743772506714,
            0.9949748516082764,
            1.015075445175171,
            1.0351759195327759,
            1.0552763938903809,
            1.0753768682479858,
            1.0954773426055908,
            1.1155779361724854,
            1.1356784105300903,
            1.1557788848876953,
            1.1758794784545898,
            1.1959798336029053,
            1.2160804271697998,
            1.2361809015274048,
            1.2562813758850098,
            1.2763819694519043,
            1.2964824438095093,
            1.3165829181671143,
            1.3366835117340088,
            1.3567838668823242,
            1.3768844604492188,
            1.3969849348068237,
            1.4170854091644287,
            1.4371860027313232,
            1.4572863578796387,
            1.4773869514465332,
            1.4974874258041382,
            1.5175879001617432,
            1.5376884937286377,
            1.5577889680862427,
            1.5778894424438477,
            1.5979899168014526,
            1.6180903911590576,
            1.6381909847259521,
            1.6582914590835571,
            1.678391933441162,
            1.6984925270080566,
            1.7185930013656616,
            1.7386934757232666,
            1.7587939500808716,
            1.7788944244384766,
            1.798995018005371,
            1.819095492362976,
            1.839195966720581,
            1.859296441078186,
            1.8793970346450806,
            1.8994975090026855,
            1.9195979833602905,
            1.9396984577178955,
            1.95979905128479,
            1.979899525642395,
            2.0
          ],
          "y_values": [
            1.3732486963272095,
            1.3594472212236397,
            1.34564574612007,
            1.3318441891644994,
            1.3180427140609297,
            1.3042412389573599,
            1.2904397638537901,
            1.2766382068982196,
            1.2628367317946498,
            1.24903525669108,
            1.2352337815875103,
            1.2214322246319398,
            1.20763074952837,
            1.1938292744248002,
            1.1800277993212305,
            1.1662263242176607,
            1.1524247672620902,
            1.1386232921585204,
            1.1248218170549507,
            1.1110202600993802,
            1.0972187849958104,
            1.0834173098922406,
            1.0696158347886708,
            1.055814359685101,
            1.0420128027295306,
            1.0282113276259608,
            1.014409852522391,
            1.0006082955668205,
            0.9868069023152515,
            0.973005345359681,
            0.9592038702561112,
            0.9454023951525414,
            0.9316008381969709,
            0.9177994449454019,
            0.9039978879898314,
            0.8901964128862616,
            0.8763949377826918,
            0.8625933808271213,
            0.8487919057235516,
            0.8349904306199818,
            0.8211888736644113,
            0.8073874804128423,
            0.7935859234572717,
            0.779784448353702,
            0.7659829732501322,
            0.7521814162945617,
            0.7383799411909919,
            0.7245784660874222,
            0.7107769909838524,
            0.6969755158802826,
            0.6831739589247121,
            0.6693724838211423,
            0.6555710087175726,
            0.6417695336140028,
            0.6279679766584323,
            0.6141665015548625,
            0.6003650264512927,
            0.586563551347723,
            0.5727619943921525,
            0.5589605192885827,
            0.5451590441850129,
            0.5313575690814432,
            0.5175560121258727,
            0.5037545370223029,
            0.4899530619187331,
            0.47615158681516334,
            0.46235011171159357,
            0.44854855475602307,
            0.4347470796524533,
            0.4209456045488835,
            0.40714412944531375,
            0.39334257248974325,
            0.3795410973861735,
            0.3657396222826037,
            0.35193814717903393,
            0.33813659022346343,
            0.32433511511989366,
            0.3105336400163239,
            0.2967321649127541,
            0.2829306079571836,
            0.26912913285361384,
            0.25532765775004407,
            0.2415261826464743,
            0.22772470754290453,
            0.21392315058733402,
            0.20012167548376425,
            0.18632020038019448,
            0.1725187252766247,
            0.1587171683210542,
            0.14491569321748443,
            0.13111421811391466,
            0.11731274301034489,
            0.10351118605477438,
            0.08970971095120461,
            0.07590823584763484,
            0.06210676074406507,
            0.0483052856404953,
            0.034503728684924795,
            0.020702253581355023,
            0.006900778477785252,
            -0.006900778477785252,
            -0.020702253581355023,
            -0.034503728684924795,
            -0.0483052856404953,
            -0.06210676074406507,
            -0.07590823584763484,
            -0.08970971095120461,
            -0.10351118605477438,
            -0.11731274301034489,
            -0.13111421811391466,
            -0.14491569321748443,
            -0.1587171683210542,
            -0.1725187252766247,
            -0.18632020038019448,
            -0.20012167548376425,
            -0.21392315058733402,
            -0.22772470754290453,
            -0.2415261826464743,
            -0.25532765775004407,
            -0.26912913285361384,
            -0.2829306079571836,
            -0.2967321649127541,
            -0.3105336400163239,
            -0.32433511511989366,
            -0.33813659022346343,
            -0.35193814717903393,
            -0.3657396222826037,
            -0.3795410973861735,
            -0.39334257248974325,
            -0.40714412944531375,
            -0.4209456045488835,
            -0.4347470796524533,
            -0.44854855475602307,
            -0.46235011171159357,
            -0.47615158681516334,
            -0.4899530619187331,
            -0.5037545370223029,
            -0.5175560121258727,
            -0.5313575690814432,
            -0.5451590441850129,
            -0.5589605192885827,
            -0.5727619943921525,
            -0.586563551347723,
            -0.6003650264512927,
            -0.6141665015548625,
            -0.6279679766584323,
            -0.6417695336140028,
            -0.6555710087175726,
            -0.6693724838211423,
            -0.6831739589247121,
            -0.6969755158802826,
            -0.7107769909838524,
            -0.7245784660874222,
            -0.7383799411909919,
            -0.7521814162945617,
            -0.7659829732501322,
            -0.779784448353702,
            -0.7935859234572717,
            -0.8073874804128423,
            -0.8211888736644113,
            -0.8349904306199818,
            -0.8487919057235516,
            -0.8625933808271213,
            -0.8763949377826918,
            -0.8901964128862616,
            -0.9039978879898314,
            -0.9177994449454019,
            -0.9316008381969709,
            -0.9454023951525414,
            -0.9592038702561112,
            -0.973005345359681,
            -0.9868069023152515,
            -1.0006082955668205,
            -1.014409852522391,
            -1.0282113276259608,
            -1.0420128027295306,
            -1.055814359685101,
            -1.0696158347886708,
            -1.0834173098922406,
            -1.0972187849958104,
            -1.1110202600993802,
            -1.1248218170549507,
            -1.1386232921585204,
            -1.1524247672620902,
            -1.1662263242176607,
            -1.1800277993212305,
            -1.1938292744248002,
            -1.20763074952837,
            -1.2214322246319398,
            -1.2352337815875103,
            -1.24903525669108,
            -1.2628367317946498,
            -1.2766382068982196,
            -1.2904397638537901,
            -1.3042412389573599,
            -1.3180427140609297,
            -1.3318441891644994,
            -1.34564574612007,
            -1.3594472212236397,
            -1.3732486963272095
          ]
        },
        {
          "input_idx": 0,
          "output_idx": 4,
          "x_values": [
            -2.0,
            -1.979899525642395,
            -1.95979905128479,
            -1.9396984577178955,
            -1.9195979833602905,
            -1.8994975090026855,
            -1.8793970346450806,
            -1.859296441078186,
            -1.839195966720581,
            -1.819095492362976,
            -1.798995018005371,
            -1.7788944244384766,
            -1.7587939500808716,
            -1.7386934757232666,
            -1.7185930013656616,
            -1.6984925270080566,
            -1.678391933441162,
            -1.6582914590835571,
            -1.6381909847259521,
            -1.6180903911590576,
            -1.5979899168014526,
            -1.5778894424438477,
            -1.5577889680862427,
            -1.5376884937286377,
            -1.5175879001617432,
            -1.4974874258041382,
            -1.4773869514465332,
            -1.4572863578796387,
            -1.4371860027313232,
            -1.4170854091644287,
            -1.3969849348068237,
            -1.3768844604492188,
            -1.3567838668823242,
            -1.3366835117340088,
            -1.3165829181671143,
            -1.2964824438095093,
            -1.2763819694519043,
            -1.2562813758850098,
            -1.2361809015274048,
            -1.2160804271697998,
            -1.1959798336029053,
            -1.1758794784545898,
            -1.1557788848876953,
            -1.1356784105300903,
            -1.1155779361724854,
            -1.0954773426055908,
            -1.0753768682479858,
            -1.0552763938903809,
            -1.0351759195327759,
            -1.015075445175171,
            -0.9949748516082764,
            -0.9748743772506714,
            -0.9547739028930664,
            -0.9346734285354614,
            -0.9145728349685669,
            -0.8944723606109619,
            -0.8743718862533569,
            -0.854271411895752,
            -0.8341708183288574,
            -0.8140703439712524,
            -0.7939698696136475,
            -0.7738693952560425,
            -0.753768801689148,
            -0.733668327331543,
            -0.713567852973938,
            -0.693467378616333,
            -0.673366904258728,
            -0.6532663106918335,
            -0.6331658363342285,
            -0.6130653619766235,
            -0.5929648876190186,
            -0.572864294052124,
            -0.552763819694519,
            -0.5326633453369141,
            -0.5125628709793091,
            -0.49246227741241455,
            -0.47236180305480957,
            -0.4522613286972046,
            -0.4321608543395996,
            -0.4120602607727051,
            -0.3919597864151001,
            -0.3718593120574951,
            -0.35175883769989014,
            -0.33165836334228516,
            -0.3115577697753906,
            -0.29145729541778564,
            -0.27135682106018066,
            -0.2512563467025757,
            -0.23115575313568115,
            -0.21105527877807617,
            -0.1909548044204712,
            -0.1708543300628662,
            -0.15075373649597168,
            -0.1306532621383667,
            -0.11055278778076172,
            -0.09045231342315674,
            -0.07035183906555176,
            -0.05025124549865723,
            -0.030150771141052246,
            -0.010050296783447266,
            0.010050296783447266,
            0.030150771141052246,
            0.05025124549865723,
            0.07035183906555176,
            0.09045231342315674,
            0.11055278778076172,
            0.1306532621383667,
            0.15075373649597168,
            0.1708543300628662,
            0.1909548044204712,
            0.21105527877807617,
            0.23115575313568115,
            0.2512563467025757,
            0.27135682106018066,
            0.29145729541778564,
            0.3115577697753906,
            0.33165836334228516,
            0.35175883769989014,
            0.3718593120574951,
            0.3919597864151001,
            0.4120602607727051,
            0.4321608543395996,
            0.4522613286972046,
            0.47236180305480957,
            0.49246227741241455,
            0.5125628709793091,
            0.5326633453369141,
            0.552763819694519,
            0.572864294052124,
            0.5929648876190186,
            0.6130653619766235,
            0.6331658363342285,
            0.6532663106918335,
            0.673366904258728,
            0.693467378616333,
            0.713567852973938,
            0.733668327331543,
            0.753768801689148,
            0.7738693952560425,
            0.7939698696136475,
            0.8140703439712524,
            0.8341708183288574,
            0.854271411895752,
            0.8743718862533569,
            0.8944723606109619,
            0.9145728349685669,
            0.9346734285354614,
            0.9547739028930664,
            0.9748743772506714,
            0.9949748516082764,
            1.015075445175171,
            1.0351759195327759,
            1.0552763938903809,
            1.0753768682479858,
            1.0954773426055908,
            1.1155779361724854,
            1.1356784105300903,
            1.1557788848876953,
            1.1758794784545898,
            1.1959798336029053,
            1.2160804271697998,
            1.2361809015274048,
            1.2562813758850098,
            1.2763819694519043,
            1.2964824438095093,
            1.3165829181671143,
            1.3366835117340088,
            1.3567838668823242,
            1.3768844604492188,
            1.3969849348068237,
            1.4170854091644287,
            1.4371860027313232,
            1.4572863578796387,
            1.4773869514465332,
            1.4974874258041382,
            1.5175879001617432,
            1.5376884937286377,
            1.5577889680862427,
            1.5778894424438477,
            1.5979899168014526,
            1.6180903911590576,
            1.6381909847259521,
            1.6582914590835571,
            1.678391933441162,
            1.6984925270080566,
            1.7185930013656616,
            1.7386934757232666,
            1.7587939500808716,
            1.7788944244384766,
            1.798995018005371,
            1.819095492362976,
            1.839195966720581,
            1.859296441078186,
            1.8793970346450806,
            1.8994975090026855,
            1.9195979833602905,
            1.9396984577178955,
            1.95979905128479,
            1.979899525642395,
            2.0
          ],
          "y_values": [
            -1.2612468004226685,
            -1.2485709709374149,
            -1.2358951414521613,
            -1.2232192367907402,
            -1.2105434073054866,
            -1.197867577820233,
            -1.1851917483349794,
            -1.1725158436735583,
            -1.1598400141883047,
            -1.1471641847030511,
            -1.1344883552177976,
            -1.1218124505563765,
            -1.1091366210711229,
            -1.0964607915858693,
            -1.0837849621006157,
            -1.0711091326153621,
            -1.058433227953941,
            -1.0457573984686874,
            -1.0330815689834338,
            -1.0204056643220127,
            -1.0077298348367592,
            -0.9950540053515056,
            -0.982378175866252,
            -0.9697023463809984,
            -0.9570264417195773,
            -0.9443506122343237,
            -0.9316747827490701,
            -0.918998878087649,
            -0.906323123778563,
            -0.8936472191171418,
            -0.8809713896318883,
            -0.8682955601466347,
            -0.8556196554852136,
            -0.8429439011761275,
            -0.8302679965147064,
            -0.8175921670294528,
            -0.8049163375441992,
            -0.7922404328827781,
            -0.7795646033975245,
            -0.766888773912271,
            -0.7542128692508498,
            -0.7415371149417638,
            -0.7288612102803427,
            -0.7161853807950891,
            -0.7035095513098355,
            -0.6908336466484144,
            -0.6781578171631608,
            -0.6654819876779072,
            -0.6528061581926536,
            -0.6401303287074,
            -0.627454424045979,
            -0.6147785945607254,
            -0.6021027650754718,
            -0.5894269355902182,
            -0.5767510309287971,
            -0.5640752014435435,
            -0.5513993719582899,
            -0.5387235424730363,
            -0.5260476378116152,
            -0.5133718083263616,
            -0.5006959788411081,
            -0.48802014935585447,
            -0.47534424469443337,
            -0.4626684152091798,
            -0.4499925857239262,
            -0.4373167562386726,
            -0.424640926753419,
            -0.4119650220919979,
            -0.39928919260674434,
            -0.38661336312149075,
            -0.37393753363623716,
            -0.36126162897481606,
            -0.3485857994895625,
            -0.3359099700043089,
            -0.3232341405190553,
            -0.3105582358576342,
            -0.2978824063723806,
            -0.28520657688712703,
            -0.27253074740187344,
            -0.25985484274045234,
            -0.24717901325519875,
            -0.23450318376994517,
            -0.22182735428469158,
            -0.209151524799438,
            -0.1964756201380169,
            -0.1837997906527633,
            -0.17112396116750972,
            -0.15844813168225613,
            -0.14577222702083503,
            -0.13309639753558145,
            -0.12042056805032786,
            -0.10774473856507427,
            -0.09506883390365317,
            -0.08239300441839958,
            -0.069717174933146,
            -0.05704134544789241,
            -0.044365515962638824,
            -0.031689611301217724,
            -0.019013781815964137,
            -0.00633795233071055,
            0.00633795233071055,
            0.019013781815964137,
            0.031689611301217724,
            0.044365515962638824,
            0.05704134544789241,
            0.069717174933146,
            0.08239300441839958,
            0.09506883390365317,
            0.10774473856507427,
            0.12042056805032786,
            0.13309639753558145,
            0.14577222702083503,
            0.15844813168225613,
            0.17112396116750972,
            0.1837997906527633,
            0.1964756201380169,
            0.209151524799438,
            0.22182735428469158,
            0.23450318376994517,
            0.24717901325519875,
            0.25985484274045234,
            0.27253074740187344,
            0.28520657688712703,
            0.2978824063723806,
            0.3105582358576342,
            0.3232341405190553,
            0.3359099700043089,
            0.3485857994895625,
            0.36126162897481606,
            0.37393753363623716,
            0.38661336312149075,
            0.39928919260674434,
            0.4119650220919979,
            0.424640926753419,
            0.4373167562386726,
            0.4499925857239262,
            0.4626684152091798,
            0.47534424469443337,
            0.48802014935585447,
            0.5006959788411081,
            0.5133718083263616,
            0.5260476378116152,
            0.5387235424730363,
            0.5513993719582899,
            0.5640752014435435,
            0.5767510309287971,
            0.5894269355902182,
            0.6021027650754718,
            0.6147785945607254,
            0.627454424045979,
            0.6401303287074,
            0.6528061581926536,
            0.6654819876779072,
            0.6781578171631608,
            0.6908336466484144,
            0.7035095513098355,
            0.7161853807950891,
            0.7288612102803427,
            0.7415371149417638,
            0.7542128692508498,
            0.766888773912271,
            0.7795646033975245,
            0.7922404328827781,
            0.8049163375441992,
            0.8175921670294528,
            0.8302679965147064,
            0.8429439011761275,
            0.8556196554852136,
            0.8682955601466347,
            0.8809713896318883,
            0.8936472191171418,
            0.906323123778563,
            0.918998878087649,
            0.9316747827490701,
            0.9443506122343237,
            0.9570264417195773,
            0.9697023463809984,
            0.982378175866252,
            0.9950540053515056,
            1.0077298348367592,
            1.0204056643220127,
            1.0330815689834338,
            1.0457573984686874,
            1.058433227953941,
            1.0711091326153621,
            1.0837849621006157,
            1.0964607915858693,
            1.1091366210711229,
            1.1218124505563765,
            1.1344883552177976,
            1.1471641847030511,
            1.1598400141883047,
            1.1725158436735583,
            1.1851917483349794,
            1.197867577820233,
            1.2105434073054866,
            1.2232192367907402,
            1.2358951414521613,
            1.2485709709374149,
            1.2612468004226685
          ]
        },
        {
          "input_idx": 0,
          "output_idx": 5,
          "x_values": [
            -2.0,
            -1.979899525642395,
            -1.95979905128479,
            -1.9396984577178955,
            -1.9195979833602905,
            -1.8994975090026855,
            -1.8793970346450806,
            -1.859296441078186,
            -1.839195966720581,
            -1.819095492362976,
            -1.798995018005371,
            -1.7788944244384766,
            -1.7587939500808716,
            -1.7386934757232666,
            -1.7185930013656616,
            -1.6984925270080566,
            -1.678391933441162,
            -1.6582914590835571,
            -1.6381909847259521,
            -1.6180903911590576,
            -1.5979899168014526,
            -1.5778894424438477,
            -1.5577889680862427,
            -1.5376884937286377,
            -1.5175879001617432,
            -1.4974874258041382,
            -1.4773869514465332,
            -1.4572863578796387,
            -1.4371860027313232,
            -1.4170854091644287,
            -1.3969849348068237,
            -1.3768844604492188,
            -1.3567838668823242,
            -1.3366835117340088,
            -1.3165829181671143,
            -1.2964824438095093,
            -1.2763819694519043,
            -1.2562813758850098,
            -1.2361809015274048,
            -1.2160804271697998,
            -1.1959798336029053,
            -1.1758794784545898,
            -1.1557788848876953,
            -1.1356784105300903,
            -1.1155779361724854,
            -1.0954773426055908,
            -1.0753768682479858,
            -1.0552763938903809,
            -1.0351759195327759,
            -1.015075445175171,
            -0.9949748516082764,
            -0.9748743772506714,
            -0.9547739028930664,
            -0.9346734285354614,
            -0.9145728349685669,
            -0.8944723606109619,
            -0.8743718862533569,
            -0.854271411895752,
            -0.8341708183288574,
            -0.8140703439712524,
            -0.7939698696136475,
            -0.7738693952560425,
            -0.753768801689148,
            -0.733668327331543,
            -0.713567852973938,
            -0.693467378616333,
            -0.673366904258728,
            -0.6532663106918335,
            -0.6331658363342285,
            -0.6130653619766235,
            -0.5929648876190186,
            -0.572864294052124,
            -0.552763819694519,
            -0.5326633453369141,
            -0.5125628709793091,
            -0.49246227741241455,
            -0.47236180305480957,
            -0.4522613286972046,
            -0.4321608543395996,
            -0.4120602607727051,
            -0.3919597864151001,
            -0.3718593120574951,
            -0.35175883769989014,
            -0.33165836334228516,
            -0.3115577697753906,
            -0.29145729541778564,
            -0.27135682106018066,
            -0.2512563467025757,
            -0.23115575313568115,
            -0.21105527877807617,
            -0.1909548044204712,
            -0.1708543300628662,
            -0.15075373649597168,
            -0.1306532621383667,
            -0.11055278778076172,
            -0.09045231342315674,
            -0.07035183906555176,
            -0.05025124549865723,
            -0.030150771141052246,
            -0.010050296783447266,
            0.010050296783447266,
            0.030150771141052246,
            0.05025124549865723,
            0.07035183906555176,
            0.09045231342315674,
            0.11055278778076172,
            0.1306532621383667,
            0.15075373649597168,
            0.1708543300628662,
            0.1909548044204712,
            0.21105527877807617,
            0.23115575313568115,
            0.2512563467025757,
            0.27135682106018066,
            0.29145729541778564,
            0.3115577697753906,
            0.33165836334228516,
            0.35175883769989014,
            0.3718593120574951,
            0.3919597864151001,
            0.4120602607727051,
            0.4321608543395996,
            0.4522613286972046,
            0.47236180305480957,
            0.49246227741241455,
            0.5125628709793091,
            0.5326633453369141,
            0.552763819694519,
            0.572864294052124,
            0.5929648876190186,
            0.6130653619766235,
            0.6331658363342285,
            0.6532663106918335,
            0.673366904258728,
            0.693467378616333,
            0.713567852973938,
            0.733668327331543,
            0.753768801689148,
            0.7738693952560425,
            0.7939698696136475,
            0.8140703439712524,
            0.8341708183288574,
            0.854271411895752,
            0.8743718862533569,
            0.8944723606109619,
            0.9145728349685669,
            0.9346734285354614,
            0.9547739028930664,
            0.9748743772506714,
            0.9949748516082764,
            1.015075445175171,
            1.0351759195327759,
            1.0552763938903809,
            1.0753768682479858,
            1.0954773426055908,
            1.1155779361724854,
            1.1356784105300903,
            1.1557788848876953,
            1.1758794784545898,
            1.1959798336029053,
            1.2160804271697998,
            1.2361809015274048,
            1.2562813758850098,
            1.2763819694519043,
            1.2964824438095093,
            1.3165829181671143,
            1.3366835117340088,
            1.3567838668823242,
            1.3768844604492188,
            1.3969849348068237,
            1.4170854091644287,
            1.4371860027313232,
            1.4572863578796387,
            1.4773869514465332,
            1.4974874258041382,
            1.5175879001617432,
            1.5376884937286377,
            1.5577889680862427,
            1.5778894424438477,
            1.5979899168014526,
            1.6180903911590576,
            1.6381909847259521,
            1.6582914590835571,
            1.678391933441162,
            1.6984925270080566,
            1.7185930013656616,
            1.7386934757232666,
            1.7587939500808716,
            1.7788944244384766,
            1.798995018005371,
            1.819095492362976,
            1.839195966720581,
            1.859296441078186,
            1.8793970346450806,
            1.8994975090026855,
            1.9195979833602905,
            1.9396984577178955,
            1.95979905128479,
            1.979899525642395,
            2.0
          ],
          "y_values": [
            1.1570830345153809,
            1.1454540755829328,
            1.1338251166504847,
            1.1221960887505134,
            1.1105671298180653,
            1.0989381708856172,
            1.087309211953169,
            1.0756801840531978,
            1.0640512251207497,
            1.0524222661883016,
            1.0407933072558535,
            1.0291642793558822,
            1.017535320423434,
            1.005906361490986,
            0.9942774025585379,
            0.9826484436260898,
            0.9710194157261185,
            0.9593904567936704,
            0.9477614978612223,
            0.936132469961251,
            0.9245035110288029,
            0.9128745520963548,
            0.9012455931639067,
            0.8896166342314586,
            0.8779876063314873,
            0.8663586473990392,
            0.8547296884665911,
            0.8431006605666198,
            0.831471770601695,
            0.8198427427017236,
            0.8082137837692756,
            0.7965848248368275,
            0.7849557969368561,
            0.7733269069719313,
            0.76169787907196,
            0.7500689201395119,
            0.7384399612070638,
            0.7268109333070925,
            0.7151819743746444,
            0.7035530154421963,
            0.691923987542225,
            0.6802950975773001,
            0.6686660696773288,
            0.6570371107448807,
            0.6454081518124326,
            0.6337791239124613,
            0.6221501649800132,
            0.6105212060475651,
            0.598892247115117,
            0.5872632881826689,
            0.5756342602826976,
            0.5640053013502495,
            0.5523763424178014,
            0.5407473834853533,
            0.529118355585382,
            0.5174893966529339,
            0.5058604377204858,
            0.49423147878803775,
            0.4826024508880664,
            0.47097349195561833,
            0.45934453302317024,
            0.44771557409072216,
            0.4360865461907508,
            0.42445758725830274,
            0.41282862832585465,
            0.40119966939340657,
            0.3895707104609585,
            0.37794168256098715,
            0.36631272362853906,
            0.354683764696091,
            0.3430548057636429,
            0.33142577786367156,
            0.31979681893122347,
            0.3081678599987754,
            0.2965389010663273,
            0.28490987316635596,
            0.2732809142339079,
            0.2616519553014598,
            0.2500229963690117,
            0.23839396846904037,
            0.2267650095365923,
            0.2151360506041442,
            0.20350709167169612,
            0.19187813273924803,
            0.1802491048392767,
            0.1686201459068286,
            0.15699118697438053,
            0.14536222804193244,
            0.1337332001419611,
            0.12210424120951302,
            0.11047528227706493,
            0.09884632334461685,
            0.08721729544464552,
            0.07558833651219743,
            0.06395937757974934,
            0.05233041864730126,
            0.04070145971485317,
            0.02907243181488184,
            0.017443472882433753,
            0.005814513949985667,
            -0.005814513949985667,
            -0.017443472882433753,
            -0.02907243181488184,
            -0.04070145971485317,
            -0.05233041864730126,
            -0.06395937757974934,
            -0.07558833651219743,
            -0.08721729544464552,
            -0.09884632334461685,
            -0.11047528227706493,
            -0.12210424120951302,
            -0.1337332001419611,
            -0.14536222804193244,
            -0.15699118697438053,
            -0.1686201459068286,
            -0.1802491048392767,
            -0.19187813273924803,
            -0.20350709167169612,
            -0.2151360506041442,
            -0.2267650095365923,
            -0.23839396846904037,
            -0.2500229963690117,
            -0.2616519553014598,
            -0.2732809142339079,
            -0.28490987316635596,
            -0.2965389010663273,
            -0.3081678599987754,
            -0.31979681893122347,
            -0.33142577786367156,
            -0.3430548057636429,
            -0.354683764696091,
            -0.36631272362853906,
            -0.37794168256098715,
            -0.3895707104609585,
            -0.40119966939340657,
            -0.41282862832585465,
            -0.42445758725830274,
            -0.4360865461907508,
            -0.44771557409072216,
            -0.45934453302317024,
            -0.47097349195561833,
            -0.4826024508880664,
            -0.49423147878803775,
            -0.5058604377204858,
            -0.5174893966529339,
            -0.529118355585382,
            -0.5407473834853533,
            -0.5523763424178014,
            -0.5640053013502495,
            -0.5756342602826976,
            -0.5872632881826689,
            -0.598892247115117,
            -0.6105212060475651,
            -0.6221501649800132,
            -0.6337791239124613,
            -0.6454081518124326,
            -0.6570371107448807,
            -0.6686660696773288,
            -0.6802950975773001,
            -0.691923987542225,
            -0.7035530154421963,
            -0.7151819743746444,
            -0.7268109333070925,
            -0.7384399612070638,
            -0.7500689201395119,
            -0.76169787907196,
            -0.7733269069719313,
            -0.7849557969368561,
            -0.7965848248368275,
            -0.8082137837692756,
            -0.8198427427017236,
            -0.831471770601695,
            -0.8431006605666198,
            -0.8547296884665911,
            -0.8663586473990392,
            -0.8779876063314873,
            -0.8896166342314586,
            -0.9012455931639067,
            -0.9128745520963548,
            -0.9245035110288029,
            -0.936132469961251,
            -0.9477614978612223,
            -0.9593904567936704,
            -0.9710194157261185,
            -0.9826484436260898,
            -0.9942774025585379,
            -1.005906361490986,
            -1.017535320423434,
            -1.0291642793558822,
            -1.0407933072558535,
            -1.0524222661883016,
            -1.0640512251207497,
            -1.0756801840531978,
            -1.087309211953169,
            -1.0989381708856172,
            -1.1105671298180653,
            -1.1221960887505134,
            -1.1338251166504847,
            -1.1454540755829328,
            -1.1570830345153809
          ]
        },
        {
          "input_idx": 0,
          "output_idx": 6,
          "x_values": [
            -2.0,
            -1.979899525642395,
            -1.95979905128479,
            -1.9396984577178955,
            -1.9195979833602905,
            -1.8994975090026855,
            -1.8793970346450806,
            -1.859296441078186,
            -1.839195966720581,
            -1.819095492362976,
            -1.798995018005371,
            -1.7788944244384766,
            -1.7587939500808716,
            -1.7386934757232666,
            -1.7185930013656616,
            -1.6984925270080566,
            -1.678391933441162,
            -1.6582914590835571,
            -1.6381909847259521,
            -1.6180903911590576,
            -1.5979899168014526,
            -1.5778894424438477,
            -1.5577889680862427,
            -1.5376884937286377,
            -1.5175879001617432,
            -1.4974874258041382,
            -1.4773869514465332,
            -1.4572863578796387,
            -1.4371860027313232,
            -1.4170854091644287,
            -1.3969849348068237,
            -1.3768844604492188,
            -1.3567838668823242,
            -1.3366835117340088,
            -1.3165829181671143,
            -1.2964824438095093,
            -1.2763819694519043,
            -1.2562813758850098,
            -1.2361809015274048,
            -1.2160804271697998,
            -1.1959798336029053,
            -1.1758794784545898,
            -1.1557788848876953,
            -1.1356784105300903,
            -1.1155779361724854,
            -1.0954773426055908,
            -1.0753768682479858,
            -1.0552763938903809,
            -1.0351759195327759,
            -1.015075445175171,
            -0.9949748516082764,
            -0.9748743772506714,
            -0.9547739028930664,
            -0.9346734285354614,
            -0.9145728349685669,
            -0.8944723606109619,
            -0.8743718862533569,
            -0.854271411895752,
            -0.8341708183288574,
            -0.8140703439712524,
            -0.7939698696136475,
            -0.7738693952560425,
            -0.753768801689148,
            -0.733668327331543,
            -0.713567852973938,
            -0.693467378616333,
            -0.673366904258728,
            -0.6532663106918335,
            -0.6331658363342285,
            -0.6130653619766235,
            -0.5929648876190186,
            -0.572864294052124,
            -0.552763819694519,
            -0.5326633453369141,
            -0.5125628709793091,
            -0.49246227741241455,
            -0.47236180305480957,
            -0.4522613286972046,
            -0.4321608543395996,
            -0.4120602607727051,
            -0.3919597864151001,
            -0.3718593120574951,
            -0.35175883769989014,
            -0.33165836334228516,
            -0.3115577697753906,
            -0.29145729541778564,
            -0.27135682106018066,
            -0.2512563467025757,
            -0.23115575313568115,
            -0.21105527877807617,
            -0.1909548044204712,
            -0.1708543300628662,
            -0.15075373649597168,
            -0.1306532621383667,
            -0.11055278778076172,
            -0.09045231342315674,
            -0.07035183906555176,
            -0.05025124549865723,
            -0.030150771141052246,
            -0.010050296783447266,
            0.010050296783447266,
            0.030150771141052246,
            0.05025124549865723,
            0.07035183906555176,
            0.09045231342315674,
            0.11055278778076172,
            0.1306532621383667,
            0.15075373649597168,
            0.1708543300628662,
            0.1909548044204712,
            0.21105527877807617,
            0.23115575313568115,
            0.2512563467025757,
            0.27135682106018066,
            0.29145729541778564,
            0.3115577697753906,
            0.33165836334228516,
            0.35175883769989014,
            0.3718593120574951,
            0.3919597864151001,
            0.4120602607727051,
            0.4321608543395996,
            0.4522613286972046,
            0.47236180305480957,
            0.49246227741241455,
            0.5125628709793091,
            0.5326633453369141,
            0.552763819694519,
            0.572864294052124,
            0.5929648876190186,
            0.6130653619766235,
            0.6331658363342285,
            0.6532663106918335,
            0.673366904258728,
            0.693467378616333,
            0.713567852973938,
            0.733668327331543,
            0.753768801689148,
            0.7738693952560425,
            0.7939698696136475,
            0.8140703439712524,
            0.8341708183288574,
            0.854271411895752,
            0.8743718862533569,
            0.8944723606109619,
            0.9145728349685669,
            0.9346734285354614,
            0.9547739028930664,
            0.9748743772506714,
            0.9949748516082764,
            1.015075445175171,
            1.0351759195327759,
            1.0552763938903809,
            1.0753768682479858,
            1.0954773426055908,
            1.1155779361724854,
            1.1356784105300903,
            1.1557788848876953,
            1.1758794784545898,
            1.1959798336029053,
            1.2160804271697998,
            1.2361809015274048,
            1.2562813758850098,
            1.2763819694519043,
            1.2964824438095093,
            1.3165829181671143,
            1.3366835117340088,
            1.3567838668823242,
            1.3768844604492188,
            1.3969849348068237,
            1.4170854091644287,
            1.4371860027313232,
            1.4572863578796387,
            1.4773869514465332,
            1.4974874258041382,
            1.5175879001617432,
            1.5376884937286377,
            1.5577889680862427,
            1.5778894424438477,
            1.5979899168014526,
            1.6180903911590576,
            1.6381909847259521,
            1.6582914590835571,
            1.678391933441162,
            1.6984925270080566,
            1.7185930013656616,
            1.7386934757232666,
            1.7587939500808716,
            1.7788944244384766,
            1.798995018005371,
            1.819095492362976,
            1.839195966720581,
            1.859296441078186,
            1.8793970346450806,
            1.8994975090026855,
            1.9195979833602905,
            1.9396984577178955,
            1.95979905128479,
            1.979899525642395,
            2.0
          ],
          "y_values": [
            -1.8513139486312866,
            -1.8327078043551168,
            -1.814101660078947,
            -1.795495405455867,
            -1.7768892611796971,
            -1.7582831169035273,
            -1.7396769726273575,
            -1.7210707180042775,
            -1.7024645737281077,
            -1.6838584294519379,
            -1.665252285175768,
            -1.646646030552688,
            -1.6280398862765182,
            -1.6094337420003484,
            -1.5908275977241786,
            -1.5722214534480088,
            -1.5536151988249287,
            -1.535009054548759,
            -1.516402910272589,
            -1.497796655649509,
            -1.4791905113733392,
            -1.4605843670971694,
            -1.4419782228209996,
            -1.4233720785448298,
            -1.4047658239217498,
            -1.38615967964558,
            -1.3675535353694102,
            -1.34894728074633,
            -1.3303412468170706,
            -1.3117349921939905,
            -1.2931288479178207,
            -1.2745227036416509,
            -1.2559164490185708,
            -1.2373104150893113,
            -1.2187041604662312,
            -1.2000980161900614,
            -1.1814918719138916,
            -1.1628856172908115,
            -1.1442794730146417,
            -1.125673328738472,
            -1.1070670741153918,
            -1.0884610401861323,
            -1.0698547855630522,
            -1.0512486412868824,
            -1.0326424970107126,
            -1.0140362423876326,
            -0.9954300981114628,
            -0.976823953835293,
            -0.9582178095591232,
            -0.9396116652829534,
            -0.9210054106598733,
            -0.9023992663837035,
            -0.8837931221075337,
            -0.8651869778313639,
            -0.8465807232082838,
            -0.827974578932114,
            -0.8093684346559442,
            -0.7907622903797744,
            -0.7721560357566943,
            -0.7535498914805245,
            -0.7349437472043547,
            -0.7163376029281849,
            -0.6977313483051049,
            -0.6791252040289351,
            -0.6605190597527653,
            -0.6419129154765955,
            -0.6233067712004257,
            -0.6047005165773456,
            -0.5860943723011758,
            -0.567488228025006,
            -0.5488820837488362,
            -0.5302758291257561,
            -0.5116696848495863,
            -0.4930635405734165,
            -0.4744573962972467,
            -0.4558511416741666,
            -0.4372449973979968,
            -0.418638853121827,
            -0.4000327088456572,
            -0.38142645422257715,
            -0.36282030994640735,
            -0.34421416567023755,
            -0.32560802139406775,
            -0.30700187711789795,
            -0.28839562249481787,
            -0.26978947821864807,
            -0.25118333394247827,
            -0.23257718966630847,
            -0.2139709350432284,
            -0.1953647907670586,
            -0.1767586464908888,
            -0.158152502214719,
            -0.13954624759163892,
            -0.12094010331546912,
            -0.10233395903929932,
            -0.08372781476312952,
            -0.06512167048695972,
            -0.04651541586387964,
            -0.02790927158770984,
            -0.009303127311540038,
            0.009303127311540038,
            0.02790927158770984,
            0.04651541586387964,
            0.06512167048695972,
            0.08372781476312952,
            0.10233395903929932,
            0.12094010331546912,
            0.13954624759163892,
            0.158152502214719,
            0.1767586464908888,
            0.1953647907670586,
            0.2139709350432284,
            0.23257718966630847,
            0.25118333394247827,
            0.26978947821864807,
            0.28839562249481787,
            0.30700187711789795,
            0.32560802139406775,
            0.34421416567023755,
            0.36282030994640735,
            0.38142645422257715,
            0.4000327088456572,
            0.418638853121827,
            0.4372449973979968,
            0.4558511416741666,
            0.4744573962972467,
            0.4930635405734165,
            0.5116696848495863,
            0.5302758291257561,
            0.5488820837488362,
            0.567488228025006,
            0.5860943723011758,
            0.6047005165773456,
            0.6233067712004257,
            0.6419129154765955,
            0.6605190597527653,
            0.6791252040289351,
            0.6977313483051049,
            0.7163376029281849,
            0.7349437472043547,
            0.7535498914805245,
            0.7721560357566943,
            0.7907622903797744,
            0.8093684346559442,
            0.827974578932114,
            0.8465807232082838,
            0.8651869778313639,
            0.8837931221075337,
            0.9023992663837035,
            0.9210054106598733,
            0.9396116652829534,
            0.9582178095591232,
            0.976823953835293,
            0.9954300981114628,
            1.0140362423876326,
            1.0326424970107126,
            1.0512486412868824,
            1.0698547855630522,
            1.0884610401861323,
            1.1070670741153918,
            1.125673328738472,
            1.1442794730146417,
            1.1628856172908115,
            1.1814918719138916,
            1.2000980161900614,
            1.2187041604662312,
            1.2373104150893113,
            1.2559164490185708,
            1.2745227036416509,
            1.2931288479178207,
            1.3117349921939905,
            1.3303412468170706,
            1.34894728074633,
            1.3675535353694102,
            1.38615967964558,
            1.4047658239217498,
            1.4233720785448298,
            1.4419782228209996,
            1.4605843670971694,
            1.4791905113733392,
            1.497796655649509,
            1.516402910272589,
            1.535009054548759,
            1.5536151988249287,
            1.5722214534480088,
            1.5908275977241786,
            1.6094337420003484,
            1.6280398862765182,
            1.646646030552688,
            1.665252285175768,
            1.6838584294519379,
            1.7024645737281077,
            1.7210707180042775,
            1.7396769726273575,
            1.7582831169035273,
            1.7768892611796971,
            1.795495405455867,
            1.814101660078947,
            1.8327078043551168,
            1.8513139486312866
          ]
        },
        {
          "input_idx": 0,
          "output_idx": 7,
          "x_values": [
            -2.0,
            -1.979899525642395,
            -1.95979905128479,
            -1.9396984577178955,
            -1.9195979833602905,
            -1.8994975090026855,
            -1.8793970346450806,
            -1.859296441078186,
            -1.839195966720581,
            -1.819095492362976,
            -1.798995018005371,
            -1.7788944244384766,
            -1.7587939500808716,
            -1.7386934757232666,
            -1.7185930013656616,
            -1.6984925270080566,
            -1.678391933441162,
            -1.6582914590835571,
            -1.6381909847259521,
            -1.6180903911590576,
            -1.5979899168014526,
            -1.5778894424438477,
            -1.5577889680862427,
            -1.5376884937286377,
            -1.5175879001617432,
            -1.4974874258041382,
            -1.4773869514465332,
            -1.4572863578796387,
            -1.4371860027313232,
            -1.4170854091644287,
            -1.3969849348068237,
            -1.3768844604492188,
            -1.3567838668823242,
            -1.3366835117340088,
            -1.3165829181671143,
            -1.2964824438095093,
            -1.2763819694519043,
            -1.2562813758850098,
            -1.2361809015274048,
            -1.2160804271697998,
            -1.1959798336029053,
            -1.1758794784545898,
            -1.1557788848876953,
            -1.1356784105300903,
            -1.1155779361724854,
            -1.0954773426055908,
            -1.0753768682479858,
            -1.0552763938903809,
            -1.0351759195327759,
            -1.015075445175171,
            -0.9949748516082764,
            -0.9748743772506714,
            -0.9547739028930664,
            -0.9346734285354614,
            -0.9145728349685669,
            -0.8944723606109619,
            -0.8743718862533569,
            -0.854271411895752,
            -0.8341708183288574,
            -0.8140703439712524,
            -0.7939698696136475,
            -0.7738693952560425,
            -0.753768801689148,
            -0.733668327331543,
            -0.713567852973938,
            -0.693467378616333,
            -0.673366904258728,
            -0.6532663106918335,
            -0.6331658363342285,
            -0.6130653619766235,
            -0.5929648876190186,
            -0.572864294052124,
            -0.552763819694519,
            -0.5326633453369141,
            -0.5125628709793091,
            -0.49246227741241455,
            -0.47236180305480957,
            -0.4522613286972046,
            -0.4321608543395996,
            -0.4120602607727051,
            -0.3919597864151001,
            -0.3718593120574951,
            -0.35175883769989014,
            -0.33165836334228516,
            -0.3115577697753906,
            -0.29145729541778564,
            -0.27135682106018066,
            -0.2512563467025757,
            -0.23115575313568115,
            -0.21105527877807617,
            -0.1909548044204712,
            -0.1708543300628662,
            -0.15075373649597168,
            -0.1306532621383667,
            -0.11055278778076172,
            -0.09045231342315674,
            -0.07035183906555176,
            -0.05025124549865723,
            -0.030150771141052246,
            -0.010050296783447266,
            0.010050296783447266,
            0.030150771141052246,
            0.05025124549865723,
            0.07035183906555176,
            0.09045231342315674,
            0.11055278778076172,
            0.1306532621383667,
            0.15075373649597168,
            0.1708543300628662,
            0.1909548044204712,
